#ifndef PARAMS_H
#define PARAMS_H

// Auto generated from best_model.pth

static const float conv_0_weight[16][3][3][3] = {{{{-0.19473980f, -0.07298844f, 0.06995738f},{0.16333929f, 0.02648072f, -0.20544037f},{0.15954538f, 0.11876354f, -0.26296598f}},{{0.21782230f, 0.04279903f, 0.01507673f},{0.32499588f, 0.43516454f, -0.61860567f},{0.07995823f, 0.22961295f, -0.32132086f}},{{-0.20106459f, 0.15373871f, 0.05666558f},{0.43003210f, 0.50909758f, -0.52638108f},{0.00324703f, 0.22269140f, -0.65317363f}}},{{{-0.01344776f, 0.20588489f, 0.07444534f},{-0.09912987f, 0.49499974f, -0.56490368f},{-0.16278209f, -0.00188838f, 0.01266430f}},{{0.01762420f, 0.20070738f, -0.15678200f},{0.10514516f, 0.78692079f, -0.79370010f},{0.12092967f, 0.19682740f, -0.25994375f}},{{0.05207617f, -0.11922581f, 0.12653577f},{-0.03277494f, 0.41922113f, -0.44763964f},{0.02964539f, -0.00553151f, -0.02103991f}}},{{{0.16787384f, -0.14460374f, -0.13887747f},{-0.00440951f, 0.70925766f, -0.38477188f},{0.07548723f, -0.07242831f, 0.48520783f}},{{0.10179215f, 0.03548177f, -0.28124416f},{-0.15903066f, 0.43764204f, -0.34623331f},{-0.01975220f, -0.38543037f, 0.14914551f}},{{-0.02502708f, 0.11536046f, -0.00629741f},{-0.25917578f, 0.63645393f, -0.28593513f},{-0.30248854f, 0.00881694f, 0.29234004f}}},{{{0.21805026f, 0.57073683f, 0.41238976f},{0.47058362f, 0.64406902f, 0.35452789f},{0.26747113f, 0.29887488f, 0.09148750f}},{{-0.17578827f, -0.19121525f, -0.16672435f},{-0.29580599f, -0.36160296f, -0.33695865f},{-0.34604874f, -0.17784968f, -0.09414958f}},{{-0.09845485f, -0.21589571f, -0.15398276f},{-0.00245392f, -0.20535718f, 0.05732749f},{-0.08623080f, -0.19852173f, 0.05419536f}}},{{{0.15151790f, 0.26332301f, 0.25206643f},{0.24937040f, 0.28892034f, 0.40006223f},{0.11236838f, 0.14271988f, 0.13005766f}},{{-0.32167152f, -0.52721059f, -0.37104437f},{-0.45475489f, -0.49577573f, -0.55573195f},{-0.32530218f, -0.29578814f, -0.14295739f}},{{0.21507226f, 0.25986496f, 0.10203652f},{0.16072510f, 0.09934758f, 0.07605822f},{0.17737162f, 0.06705701f, 0.02023887f}}},{{{-0.09037656f, -0.21712020f, -0.15780823f},{-0.37339839f, 0.03841899f, 0.41582632f},{0.13986111f, 0.47088826f, 0.31966650f}},{{-0.01729295f, -0.35412657f, -0.00990056f},{-0.48650086f, 0.01031094f, 0.22054091f},{-0.03456080f, 0.32187712f, 0.24809420f}},{{0.58067852f, 0.21902558f, -0.18211195f},{-0.34225535f, -0.61514974f, -0.14305952f},{0.00296185f, 0.00836457f, 0.09929453f}}},{{{0.72887909f, 0.46413958f, 0.20695361f},{-0.03796871f, -0.15010013f, -0.02239591f},{-0.54813766f, -0.44014809f, -0.16516817f}},{{0.51358265f, 0.50962144f, 0.06567495f},{-0.29253715f, -0.26369211f, -0.06300543f},{-0.21848616f, -0.31192550f, 0.01177744f}},{{0.09023430f, 0.23441181f, 0.03319296f},{-0.16781135f, -0.00923485f, -0.10631979f},{0.02861850f, -0.01448364f, -0.06527154f}}},{{{0.19796279f, 0.11047868f, 0.44341430f},{-0.04608247f, -0.35688752f, 0.15229213f},{-0.11101209f, -0.96672344f, -0.16330522f}},{{-0.12347523f, -0.26390457f, 0.11351056f},{0.04809316f, -0.39520982f, 0.14448489f},{0.03302781f, -0.67036736f, 0.23734562f}},{{0.01205015f, 0.12421725f, 0.35131350f},{-0.08552131f, -0.32171616f, 0.37652341f},{-0.00942744f, -0.06818147f, 0.20928392f}}},{{{0.19527137f, -0.03175233f, -0.08539509f},{-0.16763596f, -0.18292087f, 0.10122204f},{0.24841571f, 0.02123499f, -0.07705503f}},{{0.53551430f, 0.41737604f, 0.18497117f},{-0.72614604f, -0.62233567f, 0.07339710f},{0.24220452f, -0.06183004f, -0.02558383f}},{{0.56088257f, 0.28847551f, -0.11908609f},{-0.38969749f, -0.16874221f, -0.03655580f},{-0.18956329f, -0.15855210f, 0.06424181f}}},{{{0.01794575f, -0.21329063f, -0.34703511f},{0.17832242f, 0.70324439f, -0.43263558f},{0.14347005f, 0.38145986f, 0.00057095f}},{{0.14653187f, 0.17413644f, -0.01187923f},{0.35007662f, 0.51503414f, -0.23390450f},{0.22550966f, 0.30373684f, -0.16692001f}},{{0.03249919f, 0.07267410f, 0.29533285f},{-0.03367813f, 0.00221929f, -0.24870729f},{-0.41377172f, -0.43467993f, -0.30207407f}}},{{{-0.24806215f, 0.38743889f, 0.43154752f},{-0.28105047f, -0.21214324f, 0.09144792f},{0.04673388f, -0.40848258f, -0.31660011f}},{{-0.45620224f, -0.19644560f, -0.13918054f},{-0.10250989f, -0.65955204f, -0.24776873f},{0.29531187f, -0.36133364f, -0.57680452f}},{{-0.00505600f, 0.06693369f, -0.15580754f},{-0.02646974f, -0.31628424f, 0.11455509f},{-0.00887815f, -0.34936613f, -0.21287879f}}},{{{0.29000089f, 0.16170463f, -0.34845775f},{-0.23202758f, -0.46290925f, 0.36633894f},{-0.04442877f, 0.14405026f, 0.00157160f}},{{0.34642056f, -0.00420815f, -0.35234877f},{-0.11726408f, -0.08288566f, 0.58824259f},{-0.01609981f, 0.05230772f, -0.21350950f}},{{-0.09067579f, 0.09030895f, -0.57224184f},{-0.06340991f, -0.16486388f, 0.59903020f},{-0.01132992f, 0.12363539f, -0.04288315f}}},{{{-0.00035542f, 0.20085888f, 0.04866171f},{-0.22248642f, 0.78769183f, -0.48594341f},{-0.07107370f, -0.09184484f, -0.05247989f}},{{-0.07436164f, 0.05579133f, -0.23896629f},{-0.06404911f, 1.02529836f, -0.54277581f},{0.02831965f, 0.12739870f, -0.20682554f}},{{0.14940177f, -0.09230173f, 0.04330288f},{-0.06130745f, 0.27003458f, -0.31589839f},{0.11032407f, -0.02768474f, -0.04160752f}}},{{{-0.41403294f, -0.65563422f, -0.17934167f},{-0.57002127f, -0.58624542f, -0.22248767f},{0.07392509f, 0.04329006f, -0.04372955f}},{{0.00774924f, 0.14357787f, 0.29929435f},{-0.05228062f, 0.12883450f, 0.14434883f},{-0.12656306f, -0.07284046f, 0.22413085f}},{{0.34652159f, 0.28895420f, 0.27842864f},{0.24751770f, 0.41401386f, 0.10404839f},{-0.00037845f, 0.01018814f, 0.01083784f}}},{{{0.26565295f, -0.35153529f, -0.00874195f},{0.19614494f, -0.46346119f, -0.23044154f},{0.00734317f, -0.04145764f, -0.18684503f}},{{0.51946980f, -0.37548703f, -0.21244085f},{0.47301522f, -0.47768643f, 0.06700438f},{0.10366854f, 0.03212995f, 0.07884072f}},{{0.17800923f, -0.59603953f, 0.00748284f},{0.39645725f, -0.44662717f, -0.41156405f},{0.23067245f, 0.05720743f, -0.06566230f}}},{{{-0.06598649f, -0.12247029f, -0.11772665f},{-0.04918837f, -0.20761377f, -0.03944266f},{0.37494230f, 0.24608982f, 0.13408230f}},{{-0.23728046f, -0.25226873f, -0.35830405f},{-0.19765180f, -0.05282032f, 0.02053269f},{-0.00958623f, -0.11639196f, -0.14609687f}},{{0.15779720f, 0.49989939f, 0.56597871f},{0.34157851f, 0.73915017f, 0.71376163f},{-0.30672684f, -0.40393716f, -0.24253519f}}}};

static const float conv_1_scale[16] = {0.21599954f, 0.23230560f, 0.35688144f, 0.19142543f, 0.40399006f, 0.27457657f, 0.67452329f, 0.10565116f, 0.43830994f, 0.30243033f, 0.14219165f, 2.31803632f, 0.29332179f, 0.22029322f, 0.17706336f, 0.17312622f};

static const float conv_1_shift[16] = {0.55809045f, 0.61364663f, 0.56999689f, 0.73132539f, 0.54015243f, 0.69292688f, -0.07361847f, 0.81127137f, 0.38702005f, 0.61376208f, 0.60346043f, -0.12647861f, 0.70162171f, 0.65558141f, 0.71328026f, 0.77127874f};

static const float features_0_deepwise_weight[16][1][3][3] = {{{{0.34386286f, 0.06390213f, -0.37450871f},{0.62647635f, -0.04419630f, -0.66421711f},{0.02484259f, 0.02731070f, -0.01383847f}}},{{{0.07492702f, -0.25646663f, 0.22854023f},{0.13230103f, -0.70915222f, 0.55932486f},{0.00202199f, -0.30452135f, 0.22560138f}}},{{{0.10599300f, -0.46441957f, 0.04862095f},{0.43953708f, 0.28992444f, -0.52950233f},{-0.26544908f, 0.39065644f, 0.01596527f}}},{{{0.41813299f, 0.38575420f, -0.15537207f},{0.69323188f, 0.12339638f, -0.36727229f},{0.00619384f, -0.12202650f, -0.48095718f}}},{{{0.20002243f, -0.18857133f, 0.11562452f},{-0.84549528f, -0.55032450f, 0.33821723f},{-0.07466124f, 0.05112378f, 0.28134468f}}},{{{-0.22323835f, -0.37056887f, 0.08685818f},{-0.41818291f, 0.00670340f, 0.37355831f},{0.27585596f, 0.65207541f, -0.30520463f}}},{{{-0.05251600f, -0.09137878f, 0.33141938f},{0.04020184f, 0.71673673f, 0.77117884f},{-0.04468841f, 0.39672115f, 0.31395429f}}},{{{-0.99589956f, 0.04470099f, -0.27139682f},{0.00003899f, 0.38655919f, -0.23995931f},{-0.45628116f, 0.17975436f, -0.04274683f}}},{{{0.02968401f, 0.42918506f, 0.20490383f},{-0.04420586f, 0.31003800f, 0.13345151f},{-0.16161965f, -0.63358176f, -0.36111158f}}},{{{-0.46048489f, -0.79002923f, -0.22798699f},{0.60294861f, -0.18404554f, -0.06569473f},{0.25966796f, 0.31396329f, 0.06793763f}}},{{{-0.34145540f, -0.00534661f, 0.14253031f},{0.24021623f, -0.03115062f, -0.20736083f},{0.77998340f, 0.33176365f, -0.30736881f}}},{{{-0.04698791f, -0.04649426f, -0.06865355f},{-0.46908402f, -0.80017722f, -0.23629373f},{0.08851593f, -0.57835031f, -0.31105921f}}},{{{-0.24889055f, 0.37225202f, -0.06087606f},{-0.53599864f, 0.58017719f, -0.14198367f},{-0.13647956f, 0.20307066f, -0.07309577f}}},{{{0.19526401f, 0.23123254f, 0.45152974f},{-0.11309569f, -0.39528900f, -0.18085080f},{-0.13680242f, -0.35163304f, -0.58620983f}}},{{{0.21331958f, 0.43712431f, 0.29023460f},{-0.25005686f, -0.10183357f, 0.02603833f},{-0.00486255f, -0.53245759f, -0.47912493f}}},{{{0.10127028f, 0.04635431f, -0.24693815f},{0.54415327f, 0.27684087f, -0.45610404f},{0.53327543f, 0.22341605f, -0.30843937f}}}};

static const float features_0_bn1_scale[16] = {2.88168502f, 4.04954338f, 2.84808373f, 3.23531318f, 1.84531188f, 2.29610062f, 0.63437408f, 1.74250889f, 2.19489861f, 1.82065177f, 1.77853775f, 0.60329026f, 3.45185065f, 1.86579347f, 2.52317405f, 3.31117535f};

static const float features_0_bn1_shift[16] = {0.01977736f, 0.06610828f, -0.06101769f, -0.79606456f, 1.44502592f, -0.09284423f, 0.30888790f, 2.05279636f, 0.10087609f, 1.48446548f, -0.23486325f, 1.08818305f, 0.05854699f, 1.88714933f, 1.65324175f, -0.87417775f};

static const float features_0_pointwise_weight[32][16][1][1] = {{{{0.27072844f}},{{-0.00541343f}},{{0.64957458f}},{{-0.05514169f}},{{-0.12173068f}},{{-0.24497688f}},{{0.02145332f}},{{-0.37871796f}},{{0.20593227f}},{{0.22155169f}},{{-0.47319192f}},{{0.36749524f}},{{-0.18210161f}},{{0.04958403f}},{{-0.68862695f}},{{-0.36816797f}}},{{{-0.32430515f}},{{0.01482480f}},{{0.53486091f}},{{-0.02328228f}},{{-0.12054963f}},{{-0.32378471f}},{{-0.11038043f}},{{-0.12422393f}},{{-0.64436382f}},{{-0.69341648f}},{{0.39118055f}},{{-0.17671891f}},{{-0.15306398f}},{{-0.01194264f}},{{0.57415712f}},{{0.09982178f}}},{{{0.10898327f}},{{0.19897929f}},{{0.06046621f}},{{-0.55136764f}},{{-0.69458389f}},{{-0.07960979f}},{{-0.14385611f}},{{-0.04625105f}},{{-0.04533539f}},{{0.08271328f}},{{-0.22848791f}},{{-0.21823591f}},{{0.15168151f}},{{-0.78071398f}},{{-0.31748429f}},{{0.11926041f}}},{{{0.04118112f}},{{-0.28509167f}},{{-0.23862191f}},{{0.14057079f}},{{0.23363838f}},{{0.01803839f}},{{-0.06345548f}},{{0.07374683f}},{{-0.20846793f}},{{-0.13466571f}},{{0.14726683f}},{{-0.25540861f}},{{-0.13610499f}},{{0.29076385f}},{{-0.77664161f}},{{0.62519377f}}},{{{-0.17609860f}},{{0.05918057f}},{{0.14781111f}},{{-0.60701549f}},{{0.02557299f}},{{-0.10998908f}},{{-0.03316375f}},{{0.31775326f}},{{-0.10292389f}},{{-0.05293814f}},{{0.08316460f}},{{-0.24400471f}},{{0.07741775f}},{{0.39098188f}},{{-0.21717735f}},{{-0.87335396f}}},{{{0.01676838f}},{{0.01405095f}},{{0.03050272f}},{{-0.29698655f}},{{0.96901941f}},{{-0.06928250f}},{{-0.06589355f}},{{0.10370617f}},{{-0.04054016f}},{{-0.16193651f}},{{0.02732485f}},{{-0.16018899f}},{{-0.01592959f}},{{-0.04064682f}},{{-0.01502474f}},{{-0.70836556f}}},{{{0.41447142f}},{{0.03690505f}},{{-0.16250971f}},{{0.11188598f}},{{-0.28267664f}},{{0.75016075f}},{{-0.25455961f}},{{-0.48389834f}},{{0.09808143f}},{{-0.27968496f}},{{-0.00150016f}},{{-0.48032564f}},{{-0.19538291f}},{{-0.19200078f}},{{0.43782187f}},{{-0.13247426f}}},{{{0.14302836f}},{{1.06958807f}},{{0.17800443f}},{{0.06089497f}},{{0.16964778f}},{{0.07171458f}},{{-0.25149184f}},{{0.13521785f}},{{-0.12885015f}},{{-0.16036648f}},{{0.05700018f}},{{0.09953213f}},{{1.05892015f}},{{-0.08436207f}},{{-0.32199612f}},{{0.18050058f}}},{{{-0.04286221f}},{{-0.09165021f}},{{0.07812374f}},{{0.02772918f}},{{-0.64668602f}},{{-0.19588062f}},{{0.03643238f}},{{-0.32760450f}},{{0.09845369f}},{{0.20950763f}},{{0.14646764f}},{{0.05413023f}},{{-0.05976117f}},{{0.78235799f}},{{-0.58801824f}},{{-0.46690211f}}},{{{-0.01181294f}},{{0.08133400f}},{{0.04958079f}},{{-0.11677928f}},{{-0.04084045f}},{{-0.02965088f}},{{0.66089714f}},{{-0.69652969f}},{{0.30581445f}},{{0.19984470f}},{{0.81117481f}},{{-0.31327909f}},{{-0.08045493f}},{{-0.18787463f}},{{-0.20830382f}},{{0.11283544f}}},{{{0.31063777f}},{{-0.06608727f}},{{-0.26952669f}},{{-0.00056198f}},{{-0.13542105f}},{{0.15837128f}},{{-0.04023004f}},{{-0.47507611f}},{{0.00890056f}},{{0.06087201f}},{{1.38872552f}},{{-0.14091620f}},{{-0.09054885f}},{{-0.21510461f}},{{-0.08849165f}},{{-0.16436839f}}},{{{-0.16116530f}},{{-0.21230915f}},{{0.01211644f}},{{-0.49219900f}},{{-0.22184442f}},{{0.17080449f}},{{0.08202575f}},{{-0.04364115f}},{{0.21819735f}},{{0.70201200f}},{{-0.52606213f}},{{-0.14204893f}},{{-0.03977161f}},{{0.17093660f}},{{0.47600821f}},{{-0.21377940f}}},{{{-0.06544545f}},{{-0.22301555f}},{{0.31641781f}},{{-0.20402525f}},{{0.14437181f}},{{-0.04904647f}},{{-0.39357674f}},{{0.19355088f}},{{0.20529781f}},{{0.83627611f}},{{-0.32994249f}},{{-0.36611971f}},{{-0.01426967f}},{{0.15256225f}},{{0.50205982f}},{{-0.00426270f}}},{{{-0.39118707f}},{{-0.07206025f}},{{-0.35773858f}},{{-0.16841973f}},{{0.11280914f}},{{0.12216657f}},{{-0.98922110f}},{{-0.36010060f}},{{-0.32824627f}},{{-0.01922821f}},{{-0.23321927f}},{{-0.21629420f}},{{-0.10090853f}},{{0.09785128f}},{{-0.11313918f}},{{-0.32748222f}}},{{{0.01008471f}},{{0.01291429f}},{{0.06597473f}},{{0.21479227f}},{{-0.15114467f}},{{-0.28412145f}},{{-0.48021585f}},{{-0.44946936f}},{{-0.30665663f}},{{0.00569391f}},{{-0.14343962f}},{{0.19520591f}},{{-0.03900955f}},{{-0.57328051f}},{{0.13454346f}},{{-0.60131341f}}},{{{-0.03312848f}},{{-0.01571123f}},{{0.03293906f}},{{0.45337152f}},{{-1.20780826f}},{{0.01296748f}},{{0.00464048f}},{{0.20400986f}},{{-0.09660401f}},{{0.07838614f}},{{0.12679985f}},{{0.18331324f}},{{-0.00853939f}},{{0.60297650f}},{{0.00552840f}},{{0.04061601f}}},{{{-0.29567638f}},{{-0.22438851f}},{{-0.10547832f}},{{-0.44461370f}},{{0.16728345f}},{{0.30299342f}},{{0.04783123f}},{{1.10924876f}},{{0.15357754f}},{{0.28847760f}},{{-0.05305013f}},{{0.16233271f}},{{0.14767298f}},{{-0.09431604f}},{{-0.14962296f}},{{-0.15805021f}}},{{{-0.10540241f}},{{0.00544131f}},{{-0.06543372f}},{{0.85865670f}},{{-0.16772613f}},{{0.04690557f}},{{0.01114390f}},{{0.23428534f}},{{-0.07209993f}},{{0.21037020f}},{{-0.36635715f}},{{0.11913657f}},{{0.04329121f}},{{0.97321147f}},{{0.35969868f}},{{-0.24425943f}}},{{{0.35407472f}},{{0.80171072f}},{{0.19815819f}},{{0.09490866f}},{{-0.04906458f}},{{0.02089887f}},{{-0.42875773f}},{{-0.28701735f}},{{-0.05211743f}},{{-0.22194368f}},{{0.23323049f}},{{0.07220852f}},{{0.62133384f}},{{-0.07777374f}},{{-0.37241554f}},{{0.08331013f}}},{{{0.02127247f}},{{0.01239925f}},{{0.01639632f}},{{0.19328099f}},{{0.25238356f}},{{-0.26258746f}},{{0.16212128f}},{{0.58936834f}},{{0.20192647f}},{{-0.44040757f}},{{-0.26266745f}},{{0.29598027f}},{{-0.02197776f}},{{-0.12462620f}},{{0.33282834f}},{{0.54595745f}}},{{{0.29140946f}},{{0.00965968f}},{{0.05506761f}},{{0.47919220f}},{{0.52410418f}},{{0.24248120f}},{{0.45522702f}},{{0.10186277f}},{{0.24499968f}},{{-0.15859942f}},{{-0.16399708f}},{{-0.70869625f}},{{0.02825632f}},{{-0.19349192f}},{{0.22522557f}},{{-0.04624054f}}},{{{0.05139998f}},{{0.02163649f}},{{0.03997408f}},{{-0.14055088f}},{{0.22204667f}},{{0.01727664f}},{{-0.03794349f}},{{-0.16087045f}},{{0.04303570f}},{{0.13452752f}},{{-0.34680331f}},{{0.01954067f}},{{0.03498809f}},{{-1.29253662f}},{{0.02201409f}},{{0.47638071f}}},{{{0.15016688f}},{{0.07788882f}},{{-0.00893007f}},{{-0.89405453f}},{{0.36497796f}},{{0.05989477f}},{{0.01238700f}},{{-0.05816802f}},{{-0.01846153f}},{{-0.34307510f}},{{-0.15090820f}},{{0.01592350f}},{{-0.13509007f}},{{0.49025261f}},{{-0.10995863f}},{{0.53266084f}}},{{{0.30344576f}},{{0.30634511f}},{{-0.08956300f}},{{0.26160264f}},{{-0.08769422f}},{{-0.31399211f}},{{-0.95590127f}},{{0.11321766f}},{{-0.13745402f}},{{-0.55414093f}},{{-0.35365692f}},{{0.08854053f}},{{0.21290638f}},{{-0.01999493f}},{{0.09301583f}},{{0.23140475f}}},{{{-0.69552624f}},{{-0.54679310f}},{{-0.28547162f}},{{0.20825434f}},{{-0.01564145f}},{{0.21428433f}},{{0.43828496f}},{{0.14135846f}},{{0.82054764f}},{{0.06049236f}},{{-0.02176872f}},{{-0.14882447f}},{{-0.42833772f}},{{-0.11826303f}},{{-0.01590609f}},{{-0.13648127f}}},{{{0.16632599f}},{{0.16888954f}},{{-0.02045427f}},{{-0.86705285f}},{{0.00519602f}},{{0.26517478f}},{{0.12194182f}},{{-0.16531576f}},{{0.10861220f}},{{0.08670790f}},{{0.09087429f}},{{0.18231489f}},{{0.28877297f}},{{0.52816725f}},{{0.20796457f}},{{0.12495518f}}},{{{-0.00939967f}},{{0.03865300f}},{{0.08286951f}},{{1.09792519f}},{{0.43210119f}},{{-0.01776622f}},{{0.32443890f}},{{0.09552550f}},{{0.25208849f}},{{0.03304233f}},{{-0.16284053f}},{{-0.26056159f}},{{-0.06000936f}},{{0.18633132f}},{{0.14133683f}},{{-0.04673133f}}},{{{-0.12148056f}},{{-0.03868062f}},{{0.14131017f}},{{0.45192093f}},{{0.29638714f}},{{0.07954460f}},{{-0.05325691f}},{{-0.06449403f}},{{0.08109830f}},{{0.62524134f}},{{0.35811746f}},{{-0.08492255f}},{{-0.09907950f}},{{0.08793492f}},{{0.14889444f}},{{0.48739398f}}},{{{-1.13991892f}},{{-1.83030152f}},{{-0.85276753f}},{{0.01199342f}},{{-0.04784700f}},{{0.09285568f}},{{-0.02048563f}},{{-0.07688012f}},{{-0.09053040f}},{{-0.00815723f}},{{-0.02794678f}},{{0.07506233f}},{{-1.91800022f}},{{0.01003310f}},{{0.09875401f}},{{-0.04633076f}}},{{{0.24867804f}},{{-0.10198137f}},{{-0.38780338f}},{{0.10145391f}},{{0.12190323f}},{{-0.90022874f}},{{0.05893900f}},{{0.06119754f}},{{-1.11838198f}},{{-0.43666923f}},{{-0.22890075f}},{{1.03112507f}},{{-0.13487141f}},{{0.11780310f}},{{0.24669816f}},{{0.06587463f}}},{{{0.61459583f}},{{0.23600689f}},{{-0.23823541f}},{{0.03012382f}},{{0.05487458f}},{{-0.31789634f}},{{-0.93015158f}},{{-0.39484480f}},{{-0.59882706f}},{{-0.12776487f}},{{0.08872760f}},{{0.28678787f}},{{0.08349553f}},{{-0.14948259f}},{{-0.23123659f}},{{-0.09402625f}}},{{{-0.21377251f}},{{0.01050350f}},{{0.05329170f}},{{0.15651137f}},{{0.33844742f}},{{0.29258743f}},{{0.12299278f}},{{0.06274915f}},{{-0.49557230f}},{{0.31663656f}},{{-0.13852517f}},{{-0.08920392f}},{{0.09665889f}},{{-0.69442403f}},{{0.15605593f}},{{0.56480801f}}}};

static const float features_0_bn2_scale[32] = {0.98254323f, 1.10897291f, 0.72963685f, 1.96822238f, 0.72965479f, 1.45198894f, 1.47945285f, 0.52790928f, 0.58169860f, 0.36839059f, 0.77818292f, 1.72585928f, 0.58174378f, 0.67943734f, 1.00185764f, 0.86563605f, 0.96768469f, 0.37868610f, 1.05972242f, 0.94893295f, 1.40054405f, 0.32746381f, 0.36361280f, 0.91397870f, 1.27346933f, 2.01005840f, 0.50828308f, 2.06635356f, 0.30033106f, 0.77033037f, 1.03377831f, 1.52878809f};

static const float features_0_bn2_shift[32] = {0.54619932f, 0.22038940f, 1.83314967f, 0.10812181f, 1.26113462f, 0.65499485f, 0.96965063f, 0.15304968f, 0.98009038f, 0.38276634f, -0.51478648f, -0.71869850f, -0.05319446f, 1.64747524f, 2.04448295f, 0.31848764f, -0.38054672f, 0.21082026f, 0.42861760f, -0.49991742f, -1.01866591f, 0.86341721f, 0.68044412f, 1.07160747f, 0.23568033f, -1.83417833f, 0.09543592f, -3.94255400f, 0.25939164f, -0.14651954f, 1.21213639f, -0.97485703f};

static const float features_1_deepwise_weight[32][1][3][3] = {{{{0.28661409f, 0.41962203f, 0.15303873f},{0.30063799f, 0.51003802f, 0.34416771f},{0.08071260f, 0.22871497f, 0.20809209f}}},{{{0.25646213f, 0.32621905f, 0.19772317f},{0.32825485f, 0.59699929f, 0.35791469f},{0.14691409f, 0.31515911f, 0.25061989f}}},{{{-0.23787685f, -0.53147846f, -0.47046164f},{0.20679000f, 0.12930997f, -0.17474876f},{0.18035080f, 0.54157788f, 0.46220651f}}},{{{-0.62854773f, 0.11333782f, 0.31946513f},{-0.06640141f, 0.35372314f, 0.40952367f},{0.23064488f, 0.31565484f, 0.09757621f}}},{{{0.26829827f, 0.10648008f, -0.34967875f},{0.23681366f, -0.33153576f, -0.60396993f},{0.04590922f, -0.52010787f, -0.63488203f}}},{{{-0.02343736f, 0.22374278f, 0.23625584f},{-0.00019484f, 0.48603478f, 0.53597635f},{-0.08879382f, 0.35867935f, 0.52532798f}}},{{{0.27669099f, 0.42173404f, 0.19297428f},{0.44540250f, 0.66811448f, 0.27401972f},{0.27549344f, 0.30563611f, 0.08604851f}}},{{{-0.45724475f, -0.59190476f, -0.13345855f},{-0.35399127f, -0.51610142f, -0.25826454f},{0.01311155f, -0.03455451f, -0.05980207f}}},{{{0.28002116f, -0.22321028f, -0.33502850f},{0.43621445f, -0.01253523f, -0.55522770f},{0.37956703f, 0.26039821f, -0.27012596f}}},{{{-0.24534558f, 0.14065838f, 0.17866613f},{-0.50706249f, 0.08093811f, 0.46851799f},{-0.42609411f, -0.10062067f, 0.47323325f}}},{{{0.22440866f, 0.40941644f, 0.18600740f},{0.36281073f, 0.66180742f, 0.33574712f},{0.16605736f, 0.11982732f, 0.03433906f}}},{{{-0.10964506f, -0.36741674f, -0.15572490f},{0.27414256f, 0.27228099f, 0.13460477f},{0.32507926f, 0.46609578f, 0.33850640f}}},{{{-0.40158251f, -0.39146397f, -0.11954425f},{-0.51203763f, -0.55854625f, -0.12256189f},{-0.29858446f, -0.33499655f, 0.07850976f}}},{{{-0.54666215f, -0.25299037f, 0.17774136f},{-0.49075562f, -0.50918239f, -0.13793834f},{-0.19885539f, -0.21830899f, -0.29258731f}}},{{{-0.21174522f, -0.53262043f, -0.03776678f},{-0.47816795f, 0.02924547f, 0.38088545f},{-0.01815740f, 0.31154266f, 0.38979968f}}},{{{-0.20611328f, -0.49848157f, -0.42404708f},{0.05952623f, 0.09149724f, 0.06160237f},{0.17440982f, 0.56081182f, 0.38866588f}}},{{{-0.64615130f, 0.08124454f, -0.15739720f},{0.17061558f, 0.48631695f, 0.45144972f},{-0.07553732f, 0.23083465f, 0.23335788f}}},{{{0.04464746f, -0.17454591f, -0.25402561f},{-0.38208321f, -0.59626198f, -0.43726468f},{-0.13744636f, -0.32764226f, -0.38978997f}}},{{{-0.03018917f, 0.04701662f, -0.01846922f},{0.44128180f, 0.50814027f, 0.05777069f},{0.63216162f, 0.60568470f, 0.11868270f}}},{{{-0.30284446f, -0.51360393f, -0.36008108f},{0.23548844f, 0.21161853f, 0.05166674f},{0.35320154f, 0.40824366f, 0.26304796f}}},{{{0.52661443f, 0.55410975f, 0.05992249f},{0.38558447f, 0.44926333f, 0.08461776f},{-0.05185046f, 0.00204082f, -0.03397882f}}},{{{0.18092760f, 0.04225479f, -0.27276435f},{0.40834561f, 0.07456367f, -0.51691449f},{0.40921628f, 0.03547449f, -0.38269275f}}},{{{0.20082457f, -0.22004053f, 0.02153262f},{0.51329350f, -0.52070624f, -0.08505690f},{0.61439639f, -0.47220582f, -0.05094873f}}},{{{0.17621574f, 0.31006622f, 0.12588993f},{0.24837717f, 0.53101552f, 0.22911371f},{0.28745154f, 0.46316925f, 0.21353671f}}},{{{0.17576730f, 0.27212483f, 0.15790470f},{0.40128431f, 0.51622963f, 0.29664156f},{0.22086273f, 0.38594881f, 0.20034847f}}},{{{0.05705217f, -0.18885063f, -0.14898109f},{-0.09381078f, -0.50096488f, -0.51210177f},{0.12119510f, -0.35172436f, -0.61817461f}}},{{{-0.01706245f, 0.11034661f, -0.00140654f},{0.35261506f, 0.03493929f, -0.33558846f},{0.50580019f, -0.06802672f, -0.65091789f}}},{{{0.13842288f, 0.11289075f, 0.12508853f},{0.13521318f, 0.56729472f, 0.58043104f},{0.10194908f, 0.45362693f, 0.45470941f}}},{{{0.18759653f, 0.23041078f, 0.05805102f},{0.39998847f, 0.49938446f, 0.22501267f},{0.33965704f, 0.46277043f, 0.20059994f}}},{{{0.18366927f, 0.29456902f, 0.10280982f},{0.37437758f, 0.62535781f, 0.20372067f},{0.25235546f, 0.29933673f, 0.12920238f}}},{{{0.34356704f, 0.46447778f, 0.20036712f},{0.42947185f, 0.60585886f, 0.29116905f},{0.16111210f, 0.21958424f, 0.06667843f}}},{{{-0.10464969f, -0.26133025f, -0.30645272f},{-0.38661399f, -0.50035185f, -0.16515943f},{-0.50292510f, -0.43317717f, -0.10240422f}}}};

static const float features_1_bn1_scale[32] = {1.57222164f, 1.35327947f, 1.84330606f, 1.20832121f, 0.83361530f, 0.72007293f, 0.87159151f, 1.50608051f, 1.91451466f, 2.41125965f, 1.25885069f, 0.85588431f, 1.51709259f, 1.19928074f, 1.70206904f, 2.12863302f, 1.29478443f, 1.39946592f, 0.96251959f, 1.64390886f, 0.54669631f, 4.43051815f, 2.47329330f, 0.98526925f, 0.76988184f, 0.67129403f, 2.27976537f, 0.64258063f, 6.26004124f, 1.47703338f, 1.18591750f, 0.47843909f};

static const float features_1_bn1_shift[32] = {-0.03346926f, 0.28599393f, -0.17165574f, -0.20177248f, 1.64080715f, 0.00039721f, 0.17557049f, 2.20724964f, -0.08607860f, -0.12535655f, 0.09995395f, -0.09362999f, 1.89032757f, 1.62769675f, 0.05731917f, -0.25931820f, -0.09418064f, 2.82417202f, 0.55525738f, -0.25504181f, 0.07875347f, -0.03394023f, -0.15297535f, -0.10741669f, -0.01551300f, 0.95354611f, 0.04601482f, 0.08571780f, -0.00387442f, 0.05161655f, 0.18915552f, 1.66299891f};

static const float features_1_pointwise_weight[64][32][1][1] = {{{{0.03732894f}},{{0.09163824f}},{{0.13203992f}},{{-0.22519073f}},{{0.29273418f}},{{-0.44627225f}},{{0.09141117f}},{{-0.60608560f}},{{-0.08519880f}},{{0.09896391f}},{{-0.21797754f}},{{0.06467578f}},{{-0.18110459f}},{{0.10084789f}},{{0.12303156f}},{{-0.12932108f}},{{-0.14416876f}},{{-0.52398038f}},{{0.40996581f}},{{-0.36614648f}},{{0.79061115f}},{{-0.13166231f}},{{0.11935347f}},{{0.06132455f}},{{0.17206512f}},{{0.01380267f}},{{0.24212770f}},{{-0.30888623f}},{{0.04291513f}},{{0.27244598f}},{{-0.42836034f}},{{0.26703128f}}},{{{0.18787472f}},{{-0.13496242f}},{{-0.30751285f}},{{-0.35220894f}},{{0.17170914f}},{{0.20085895f}},{{0.08499990f}},{{-0.12821968f}},{{0.05445618f}},{{-0.04314931f}},{{-0.12340732f}},{{-0.18005288f}},{{0.11902748f}},{{0.09313768f}},{{0.20648009f}},{{0.77037394f}},{{-0.39535663f}},{{-0.52717334f}},{{-0.03077318f}},{{-0.56499094f}},{{0.06962749f}},{{0.19790003f}},{{0.04231027f}},{{-0.35831454f}},{{0.29164907f}},{{-0.31074944f}},{{-0.31558830f}},{{-0.45592785f}},{{0.00716993f}},{{-0.04752433f}},{{0.40009055f}},{{0.05243366f}}},{{{-0.02456296f}},{{0.11428665f}},{{0.05577969f}},{{0.17762490f}},{{-0.01768882f}},{{-0.30118570f}},{{-0.00663525f}},{{-0.18549998f}},{{-0.08534846f}},{{0.09159053f}},{{0.29775745f}},{{-0.05484917f}},{{-0.22283918f}},{{0.16498055f}},{{0.32310551f}},{{0.62403190f}},{{-0.16774647f}},{{-0.47999591f}},{{-0.02866362f}},{{0.40044656f}},{{0.41528606f}},{{0.26983866f}},{{0.37229607f}},{{0.39009231f}},{{0.03311982f}},{{0.15377809f}},{{0.44835681f}},{{0.86608577f}},{{0.06306191f}},{{0.20784999f}},{{0.10760842f}},{{-0.63900954f}}},{{{0.10959660f}},{{-0.15261695f}},{{-0.19878578f}},{{0.01116748f}},{{-0.43583533f}},{{-1.00250804f}},{{-0.15608667f}},{{-0.02484712f}},{{0.10937478f}},{{-0.16631520f}},{{0.01749851f}},{{-0.07552237f}},{{0.22488837f}},{{-0.00226735f}},{{0.09059776f}},{{-0.53886241f}},{{-0.20581901f}},{{-0.30133685f}},{{0.23218134f}},{{-0.03413210f}},{{-0.10255182f}},{{-0.33418423f}},{{-0.20511511f}},{{-0.37339145f}},{{-0.01188913f}},{{-0.01665796f}},{{0.01205544f}},{{-0.49961156f}},{{-0.17172919f}},{{-0.25858316f}},{{-0.13816023f}},{{0.31599981f}}},{{{-0.05777137f}},{{0.14022645f}},{{0.25045803f}},{{0.10445181f}},{{0.24114858f}},{{-0.19752565f}},{{-0.07231389f}},{{0.60864002f}},{{-0.00465323f}},{{-0.16168475f}},{{-0.33456939f}},{{-0.10484767f}},{{0.34320894f}},{{0.20655484f}},{{-0.12533611f}},{{0.29591441f}},{{-0.58276004f}},{{0.10723731f}},{{0.29651210f}},{{-0.13555314f}},{{0.34906819f}},{{0.17082903f}},{{-0.09599804f}},{{-0.48599973f}},{{-0.50765812f}},{{-0.26393455f}},{{0.37714595f}},{{0.12008519f}},{{-0.02401471f}},{{0.30534911f}},{{-0.47244388f}},{{-0.10043538f}}},{{{-0.13064255f}},{{0.02904687f}},{{-0.29422769f}},{{0.51390678f}},{{0.33499706f}},{{-0.03098734f}},{{-0.14013378f}},{{-0.43473327f}},{{0.24863733f}},{{0.36603019f}},{{0.00361567f}},{{-0.68617827f}},{{-0.31884798f}},{{0.22162944f}},{{0.25030583f}},{{-0.14461759f}},{{-0.17777616f}},{{-0.08394747f}},{{0.41330856f}},{{0.05794217f}},{{0.21951422f}},{{0.46316960f}},{{0.76288033f}},{{0.53723830f}},{{-0.00637261f}},{{-0.00537390f}},{{0.20393248f}},{{0.20791130f}},{{0.17067610f}},{{0.08840072f}},{{-0.03317182f}},{{-0.74858379f}}},{{{0.56173772f}},{{0.61393446f}},{{0.29797310f}},{{-0.21023510f}},{{0.09738058f}},{{0.00377193f}},{{0.00340933f}},{{0.29551280f}},{{-0.00921784f}},{{-0.45532784f}},{{-0.06015218f}},{{-0.30704251f}},{{-0.66016603f}},{{0.10657807f}},{{-0.20459795f}},{{0.34341103f}},{{-0.45162663f}},{{-0.06802257f}},{{-0.05088709f}},{{0.09017596f}},{{0.20708489f}},{{0.51390600f}},{{0.19366473f}},{{-0.04794672f}},{{-0.18501148f}},{{0.53755325f}},{{0.06737613f}},{{0.08133501f}},{{-0.31468406f}},{{-0.36734879f}},{{-0.39503694f}},{{-0.17282619f}}},{{{0.64539647f}},{{0.69438326f}},{{0.44274110f}},{{-0.30578640f}},{{0.13993007f}},{{0.00250008f}},{{-0.69479042f}},{{0.18012406f}},{{0.30336130f}},{{0.36973906f}},{{0.03799285f}},{{0.11753373f}},{{0.07203441f}},{{0.31105456f}},{{-0.37471914f}},{{-0.12334693f}},{{-0.23995887f}},{{0.00287680f}},{{-0.32809705f}},{{-0.12674856f}},{{-0.14396559f}},{{0.21721955f}},{{-0.15785052f}},{{0.12238846f}},{{-0.26088515f}},{{0.14255521f}},{{-0.23571718f}},{{0.17025910f}},{{-0.03782905f}},{{-0.23114911f}},{{0.10282453f}},{{0.03666567f}}},{{{-0.17953478f}},{{0.07003970f}},{{-0.15569437f}},{{0.30365247f}},{{-0.08808564f}},{{-0.08671406f}},{{-0.22933340f}},{{-0.42579746f}},{{-0.11061867f}},{{-0.31063685f}},{{-0.86590075f}},{{-0.41590077f}},{{-0.06920702f}},{{-0.42429453f}},{{-0.36398944f}},{{-0.01546565f}},{{-0.05269323f}},{{0.13367063f}},{{-0.29449949f}},{{-0.11557873f}},{{0.48647603f}},{{-0.22141996f}},{{-0.16059776f}},{{0.30565774f}},{{0.25007328f}},{{0.30753574f}},{{-0.17653634f}},{{-0.40807146f}},{{-0.06562880f}},{{0.60776544f}},{{-0.00021130f}},{{0.28945175f}}},{{{-0.01398850f}},{{0.14074133f}},{{0.44026080f}},{{0.22915554f}},{{0.01055793f}},{{-0.08255195f}},{{0.28714293f}},{{0.16068591f}},{{0.14190543f}},{{0.01670645f}},{{-0.21016911f}},{{0.07531247f}},{{-0.22761437f}},{{0.22558640f}},{{0.08716027f}},{{0.38068670f}},{{-0.04660902f}},{{0.60661763f}},{{-0.00063458f}},{{0.51961756f}},{{-0.18955459f}},{{0.05734820f}},{{-0.08700687f}},{{0.37130356f}},{{0.07761031f}},{{-0.11373816f}},{{0.14365676f}},{{0.29825765f}},{{0.05838623f}},{{-0.13866308f}},{{-0.49006629f}},{{-0.95824331f}}},{{{-0.29318473f}},{{-0.25120422f}},{{-0.36912885f}},{{0.50100523f}},{{0.02697635f}},{{0.11022066f}},{{0.03027889f}},{{0.23621695f}},{{0.04980589f}},{{0.47899863f}},{{0.06858942f}},{{-0.05034363f}},{{0.31539300f}},{{0.00162801f}},{{0.35476658f}},{{-0.48621699f}},{{-0.00985589f}},{{-0.11679011f}},{{-0.26567304f}},{{-0.06091572f}},{{0.00429513f}},{{0.10216111f}},{{0.08343565f}},{{0.24334805f}},{{-0.33825415f}},{{-0.17526986f}},{{0.27550632f}},{{-0.54429561f}},{{-0.35037121f}},{{0.30960265f}},{{0.72167504f}},{{0.04472384f}}},{{{-0.01502135f}},{{-0.16490109f}},{{0.26262116f}},{{-0.19988297f}},{{-0.13528809f}},{{-0.36677742f}},{{-0.19212705f}},{{0.07790877f}},{{-0.23209552f}},{{0.22227657f}},{{0.07800918f}},{{-0.15209214f}},{{-0.49346647f}},{{-0.08341187f}},{{0.30549353f}},{{-0.30734339f}},{{0.31671959f}},{{0.12066948f}},{{0.34680685f}},{{-0.10419846f}},{{0.54540014f}},{{-0.29807487f}},{{-0.55292946f}},{{-0.29647398f}},{{0.71971661f}},{{-0.08983070f}},{{-0.24101724f}},{{-0.11611784f}},{{-0.06731848f}},{{-0.03694426f}},{{-0.58024287f}},{{0.20523636f}}},{{{-0.28721151f}},{{-0.35079238f}},{{0.18621172f}},{{-0.63904494f}},{{-0.01312180f}},{{-0.10997932f}},{{-0.43915191f}},{{-0.59745497f}},{{-0.33677605f}},{{-0.67030090f}},{{-0.12870134f}},{{0.17674737f}},{{-0.04762165f}},{{-0.17436299f}},{{-0.11753361f}},{{0.15488002f}},{{-0.71737367f}},{{-0.08178446f}},{{0.41114527f}},{{-0.12864423f}},{{-0.13756447f}},{{-0.07728769f}},{{0.06058666f}},{{0.28991443f}},{{0.51033008f}},{{-0.27145314f}},{{-0.29056862f}},{{0.00216402f}},{{-0.17948957f}},{{-0.05644249f}},{{0.19642751f}},{{-0.17207269f}}},{{{0.55805445f}},{{0.31022948f}},{{0.47346824f}},{{0.23699756f}},{{-0.24088810f}},{{-0.12616237f}},{{-0.07194337f}},{{-0.14184408f}},{{-0.10381282f}},{{0.36951080f}},{{0.12081266f}},{{0.02086602f}},{{0.01864601f}},{{0.65190715f}},{{0.02916882f}},{{0.12896331f}},{{-0.15783499f}},{{-0.56859505f}},{{0.15628357f}},{{0.10303326f}},{{-0.13993050f}},{{1.03647470f}},{{0.19174412f}},{{0.03845767f}},{{0.00988519f}},{{-0.09169088f}},{{0.11110077f}},{{0.14337233f}},{{-0.11670146f}},{{-0.21268439f}},{{-0.22671549f}},{{0.29619658f}}},{{{0.21099912f}},{{-0.02306547f}},{{-0.06494933f}},{{0.17715119f}},{{-0.05017793f}},{{-0.24851362f}},{{0.17341174f}},{{-0.13455229f}},{{0.22716333f}},{{-0.13664180f}},{{0.51300508f}},{{-0.22734831f}},{{-0.38078833f}},{{0.61672413f}},{{0.06950051f}},{{-0.11882523f}},{{-0.09090874f}},{{-0.13384198f}},{{0.17420383f}},{{0.37794778f}},{{0.25000882f}},{{0.21826155f}},{{0.51592916f}},{{-0.17967403f}},{{0.60467869f}},{{-0.13110402f}},{{0.11117250f}},{{0.45359215f}},{{0.25057766f}},{{-0.09097659f}},{{0.21076764f}},{{0.17346525f}}},{{{0.17701362f}},{{-0.02407204f}},{{0.01658890f}},{{0.11831038f}},{{0.30788621f}},{{-0.13277099f}},{{0.20284645f}},{{-0.16122322f}},{{0.05930062f}},{{-0.25962189f}},{{-0.17627154f}},{{0.36010388f}},{{-0.24239376f}},{{0.18249945f}},{{-0.19362736f}},{{-0.72581673f}},{{-0.26738995f}},{{-0.55735791f}},{{-0.23318671f}},{{0.64389324f}},{{-0.24742417f}},{{-0.17837547f}},{{0.00175150f}},{{-0.18498485f}},{{0.42365050f}},{{-0.13647239f}},{{0.03395669f}},{{-0.15059558f}},{{-0.11707965f}},{{-0.21283917f}},{{0.30100197f}},{{-0.21107179f}}},{{{0.08023026f}},{{0.13949494f}},{{0.08610040f}},{{-0.01485504f}},{{-0.01537976f}},{{-0.27054623f}},{{0.13117073f}},{{-0.85406774f}},{{0.07630580f}},{{0.09922448f}},{{0.09179543f}},{{0.04005497f}},{{0.09746604f}},{{-0.48127821f}},{{-0.21896631f}},{{-0.13673034f}},{{-0.41990188f}},{{-0.29577842f}},{{0.61698085f}},{{0.04962667f}},{{-0.17092386f}},{{0.11299343f}},{{0.44354942f}},{{0.05535187f}},{{-0.11013785f}},{{-0.40927044f}},{{0.31644142f}},{{-0.24167895f}},{{-0.23530807f}},{{-0.21717790f}},{{0.30002087f}},{{0.40117773f}}},{{{0.15990750f}},{{0.17098668f}},{{0.39970264f}},{{-0.13424318f}},{{-0.05519846f}},{{0.08291816f}},{{0.21534210f}},{{0.02600781f}},{{-0.06673438f}},{{-0.08035429f}},{{-0.07638272f}},{{0.28184789f}},{{-0.57850981f}},{{-0.06235443f}},{{-0.34033710f}},{{0.31562942f}},{{-0.38337308f}},{{-0.55227649f}},{{0.10451803f}},{{0.42875087f}},{{-0.17795326f}},{{-0.31695437f}},{{-0.03514313f}},{{-0.27031931f}},{{0.38035494f}},{{-0.46724185f}},{{0.00205739f}},{{0.22275935f}},{{-0.13405877f}},{{-0.40167364f}},{{-0.36264485f}},{{-0.39209628f}}},{{{-0.12554756f}},{{0.00948285f}},{{-0.38926011f}},{{0.23749414f}},{{0.13329461f}},{{-0.32999548f}},{{-0.14866528f}},{{-0.29535687f}},{{0.01057600f}},{{-0.39771864f}},{{-0.04251269f}},{{-0.03024052f}},{{0.05973278f}},{{0.30461293f}},{{0.00756586f}},{{-0.08391684f}},{{-0.21082202f}},{{0.48888093f}},{{-0.10901213f}},{{0.05518983f}},{{-0.05857502f}},{{-0.15573074f}},{{-0.17015791f}},{{0.26697415f}},{{0.12964973f}},{{-0.25627804f}},{{-0.14381833f}},{{0.69073033f}},{{0.49802405f}},{{0.02145682f}},{{-0.24000412f}},{{-1.00278771f}}},{{{-0.55005509f}},{{-0.53527361f}},{{0.13724348f}},{{0.26889092f}},{{0.48851094f}},{{0.22083205f}},{{-0.10438901f}},{{0.13149764f}},{{-0.27785954f}},{{0.12194345f}},{{0.31303191f}},{{0.33141056f}},{{0.26147744f}},{{-0.15526564f}},{{-0.05545598f}},{{0.09633759f}},{{0.55537695f}},{{0.13818435f}},{{-0.24891527f}},{{-0.03658683f}},{{0.06454847f}},{{-0.14903431f}},{{-0.15656431f}},{{0.09887926f}},{{-0.28266650f}},{{-0.49161124f}},{{0.18555707f}},{{-0.13915133f}},{{0.12171784f}},{{0.53924960f}},{{0.17441764f}},{{0.17051759f}}},{{{0.44966644f}},{{-0.09012147f}},{{0.03262050f}},{{0.22244528f}},{{0.20654079f}},{{-0.57417589f}},{{0.16038121f}},{{-0.25874153f}},{{0.33992693f}},{{0.16143897f}},{{0.14873049f}},{{0.15827429f}},{{0.26670137f}},{{-0.33574447f}},{{0.20276757f}},{{-0.16427436f}},{{-0.23482174f}},{{0.49207368f}},{{0.40312034f}},{{0.29506791f}},{{0.31571212f}},{{0.17807958f}},{{0.31867763f}},{{-0.19595549f}},{{-0.21995269f}},{{-0.35079721f}},{{0.19465993f}},{{0.30081370f}},{{0.09168534f}},{{-0.14166693f}},{{0.57510036f}},{{-0.14518999f}}},{{{0.12090287f}},{{0.09337959f}},{{0.33410358f}},{{-0.00997703f}},{{0.11376614f}},{{-0.69914407f}},{{0.02212799f}},{{-0.05886089f}},{{0.32880896f}},{{-0.10875001f}},{{-0.10187501f}},{{0.42453676f}},{{-0.04568523f}},{{0.46850663f}},{{0.03024498f}},{{-0.25398380f}},{{-0.27011639f}},{{0.91309112f}},{{0.27744001f}},{{0.40820169f}},{{-0.32523689f}},{{0.21144301f}},{{-0.02716180f}},{{-0.23651347f}},{{-0.09221017f}},{{-0.14739582f}},{{0.17760651f}},{{0.16429162f}},{{-0.30879444f}},{{-0.24572141f}},{{0.00864328f}},{{-0.43332762f}}},{{{-0.05188608f}},{{0.08593839f}},{{-0.57054275f}},{{0.03085570f}},{{0.67352831f}},{{-0.59649271f}},{{0.11289918f}},{{-0.21237086f}},{{-0.13727474f}},{{0.43030801f}},{{-0.07997099f}},{{0.08117602f}},{{0.41577473f}},{{-0.06543297f}},{{-0.31137455f}},{{0.11114429f}},{{0.06898942f}},{{-0.13646515f}},{{0.36728257f}},{{0.02792135f}},{{-0.24508892f}},{{-0.01966566f}},{{0.18361916f}},{{0.81445676f}},{{-0.03963322f}},{{0.04129361f}},{{0.00548437f}},{{-0.00020730f}},{{-0.22150736f}},{{0.17668523f}},{{0.29069161f}},{{0.32475764f}}},{{{0.04071638f}},{{-0.03024809f}},{{-0.20842658f}},{{0.07545964f}},{{-0.25399169f}},{{0.05546008f}},{{-0.43692407f}},{{0.22132817f}},{{-0.13541485f}},{{0.05421589f}},{{0.59656668f}},{{0.00940490f}},{{0.38609564f}},{{-0.24372120f}},{{0.33581725f}},{{0.32063675f}},{{-0.14642997f}},{{0.57243675f}},{{0.06022554f}},{{-0.54529583f}},{{0.12455298f}},{{0.25718704f}},{{0.23263848f}},{{-0.63157970f}},{{0.09709091f}},{{0.18694510f}},{{-0.01636213f}},{{-0.02179300f}},{{0.11691393f}},{{-0.49731949f}},{{0.27808589f}},{{0.35188428f}}},{{{-0.04319219f}},{{0.16074167f}},{{-0.16728400f}},{{0.04204389f}},{{0.07052128f}},{{-0.49498826f}},{{0.25404900f}},{{-0.40821502f}},{{-0.10646458f}},{{0.07672617f}},{{0.86081076f}},{{0.48405293f}},{{0.31924134f}},{{0.21905431f}},{{-0.16359511f}},{{0.03983254f}},{{-0.08362547f}},{{0.23059475f}},{{0.25595412f}},{{-0.02800052f}},{{-0.25152165f}},{{0.28150895f}},{{0.33173212f}},{{-0.49116945f}},{{0.06651802f}},{{0.05414699f}},{{0.31417012f}},{{0.05470562f}},{{0.13282070f}},{{0.28101692f}},{{0.12593402f}},{{0.36533099f}}},{{{0.07369854f}},{{0.18774037f}},{{0.35658348f}},{{-0.12636331f}},{{-0.02158025f}},{{-0.69156390f}},{{0.09106349f}},{{0.04445484f}},{{-0.12541988f}},{{0.04693628f}},{{0.28160432f}},{{-0.06456195f}},{{-0.01663748f}},{{-0.40802354f}},{{0.01526237f}},{{0.15812303f}},{{0.18690775f}},{{-0.01750093f}},{{0.29276499f}},{{-0.06771956f}},{{0.38552552f}},{{-0.07995190f}},{{0.06328550f}},{{-0.49082759f}},{{-0.38857487f}},{{-0.13661581f}},{{0.08507645f}},{{-0.19871639f}},{{-0.45121631f}},{{0.59465021f}},{{-0.22353211f}},{{0.31590080f}}},{{{0.20453149f}},{{-0.01824926f}},{{0.00588483f}},{{0.10169165f}},{{-0.14175664f}},{{-0.57073998f}},{{0.17867666f}},{{0.68949789f}},{{0.18496136f}},{{0.44156238f}},{{0.21042123f}},{{0.06100376f}},{{0.11062450f}},{{-0.14870186f}},{{0.23838034f}},{{-0.06441887f}},{{-0.39222100f}},{{-0.08994474f}},{{-0.35348213f}},{{0.27563658f}},{{-0.14936359f}},{{0.29306397f}},{{-0.04084509f}},{{0.14805406f}},{{-0.18902728f}},{{0.60683614f}},{{-0.12620746f}},{{-0.45569530f}},{{-0.51184672f}},{{0.08807427f}},{{-0.10639077f}},{{0.29111931f}}},{{{-0.19302756f}},{{-0.19876717f}},{{-0.01307452f}},{{-0.05872253f}},{{-0.07940491f}},{{0.02327616f}},{{-0.11569889f}},{{0.11549432f}},{{-0.23096864f}},{{-0.62078524f}},{{-0.36250651f}},{{-0.01848264f}},{{0.39172032f}},{{0.75658548f}},{{-0.14939903f}},{{0.17194258f}},{{-0.17752896f}},{{0.06583615f}},{{-0.20756659f}},{{0.13747281f}},{{-0.07246796f}},{{-0.49097008f}},{{-0.34910139f}},{{-0.08397212f}},{{-0.39048016f}},{{0.00941982f}},{{-0.82321668f}},{{-0.11679899f}},{{-0.65361607f}},{{0.03212138f}},{{-0.21318649f}},{{-0.14793587f}}},{{{-0.41802934f}},{{-0.03470198f}},{{0.33158156f}},{{-0.36940926f}},{{0.16840440f}},{{-0.12579864f}},{{-0.14875801f}},{{0.06012414f}},{{-0.52757716f}},{{0.22195289f}},{{-0.59893024f}},{{-0.06902377f}},{{-0.25264215f}},{{-0.04704710f}},{{-0.44743070f}},{{0.34007242f}},{{-0.03887042f}},{{0.01275321f}},{{-0.76267827f}},{{0.43567595f}},{{-0.51606596f}},{{-0.11750830f}},{{-0.66595763f}},{{0.21998791f}},{{-0.10777952f}},{{0.10387236f}},{{-0.09947592f}},{{-0.17671074f}},{{0.39021066f}},{{-0.23811737f}},{{-0.05938762f}},{{0.07959311f}}},{{{0.07193188f}},{{-0.12210990f}},{{0.37908804f}},{{-0.37773487f}},{{-0.50994730f}},{{-0.41152152f}},{{-0.00723760f}},{{-0.01380249f}},{{-0.32915899f}},{{0.06851036f}},{{-0.08038253f}},{{-0.20460273f}},{{-0.29389459f}},{{-0.42922288f}},{{0.11580058f}},{{-0.23090281f}},{{-0.41722339f}},{{-0.22372751f}},{{0.12000285f}},{{0.18208492f}},{{0.20991220f}},{{-0.59672463f}},{{-0.41577017f}},{{-0.47440493f}},{{0.16498680f}},{{-0.17566110f}},{{-0.15916531f}},{{-0.20232588f}},{{-0.36719513f}},{{-0.73007792f}},{{-0.20089072f}},{{0.40754256f}}},{{{-0.28374875f}},{{-0.25098583f}},{{0.10556777f}},{{0.04397022f}},{{1.03771174f}},{{0.24845693f}},{{-0.37029833f}},{{0.02489520f}},{{-0.04543257f}},{{0.03230903f}},{{-0.10271504f}},{{-0.22619924f}},{{0.14275473f}},{{-0.02939012f}},{{0.11466987f}},{{0.22859724f}},{{0.15796387f}},{{-0.22398402f}},{{0.14564985f}},{{-0.58860570f}},{{-0.05206968f}},{{0.42075691f}},{{0.29087543f}},{{0.03261955f}},{{0.15833057f}},{{-0.15235563f}},{{0.31701949f}},{{0.66913956f}},{{-0.14085151f}},{{-0.11191636f}},{{0.32486162f}},{{0.16777910f}}},{{{0.20646971f}},{{0.04412525f}},{{-0.06844451f}},{{0.00507925f}},{{0.30584103f}},{{0.18217722f}},{{0.22088504f}},{{0.25153127f}},{{-0.22098285f}},{{0.50663865f}},{{-0.26793540f}},{{0.03438912f}},{{-0.28457427f}},{{0.21190830f}},{{0.14452687f}},{{-0.13248910f}},{{-0.25098881f}},{{0.34294194f}},{{-0.46557632f}},{{0.00502253f}},{{0.03105894f}},{{-0.43330887f}},{{-0.65075409f}},{{-0.04905270f}},{{0.00572847f}},{{0.01199839f}},{{-0.24151115f}},{{-0.12767905f}},{{1.01898682f}},{{0.19594924f}},{{0.35752308f}},{{0.16662022f}}},{{{0.04683335f}},{{-0.10780106f}},{{0.19448483f}},{{0.15497720f}},{{0.20258398f}},{{0.21066505f}},{{0.01361999f}},{{-0.19636059f}},{{0.16543396f}},{{0.39426944f}},{{-0.08141728f}},{{-0.00115417f}},{{0.02794423f}},{{0.17431019f}},{{0.28576359f}},{{-0.27457687f}},{{-0.88238055f}},{{-0.01038064f}},{{0.70606518f}},{{-0.42550343f}},{{-0.11864796f}},{{0.28965980f}},{{0.11107307f}},{{-0.03027291f}},{{-0.06146143f}},{{-0.33845273f}},{{0.42013228f}},{{-0.22974567f}},{{-0.40781477f}},{{0.06146268f}},{{0.48499089f}},{{0.27442455f}}},{{{0.16482380f}},{{0.11672835f}},{{-0.14787413f}},{{0.07619955f}},{{0.31371698f}},{{-0.37474295f}},{{0.14254923f}},{{-0.17635931f}},{{0.18584564f}},{{0.10593110f}},{{0.00752623f}},{{-0.42476070f}},{{-0.17234771f}},{{-0.03629093f}},{{0.10923962f}},{{-0.23345248f}},{{0.07198618f}},{{-0.21457703f}},{{0.46702093f}},{{-0.38322726f}},{{0.13110663f}},{{0.39673081f}},{{0.49288240f}},{{-0.16485500f}},{{-0.40460259f}},{{-0.18276004f}},{{0.44034275f}},{{-0.20290533f}},{{-0.63490665f}},{{-0.24253443f}},{{0.32287610f}},{{0.10918415f}}},{{{-0.04882736f}},{{-0.28985339f}},{{-0.26683956f}},{{-0.04770003f}},{{-0.23415042f}},{{-0.37486267f}},{{-0.03581858f}},{{-0.34785968f}},{{0.46154171f}},{{0.09641892f}},{{-0.45157468f}},{{-0.10190451f}},{{-0.14509997f}},{{0.50395727f}},{{0.03604797f}},{{-0.00981753f}},{{-0.26058361f}},{{0.28782934f}},{{-0.02472815f}},{{-0.27067751f}},{{-0.08968870f}},{{0.26055908f}},{{0.17879312f}},{{-0.23938024f}},{{0.23664522f}},{{-0.61006671f}},{{-0.14534363f}},{{0.14100541f}},{{0.44162801f}},{{0.02209638f}},{{-0.06979074f}},{{-0.61087060f}}},{{{-0.36385122f}},{{-0.68891907f}},{{-0.10572276f}},{{0.36932787f}},{{-0.19740927f}},{{0.23262092f}},{{0.53658825f}},{{0.06159978f}},{{-0.35718852f}},{{0.09524525f}},{{-0.03370440f}},{{-0.26912683f}},{{0.22588475f}},{{-0.44672522f}},{{0.15537205f}},{{0.16294245f}},{{-0.43205395f}},{{-0.01425492f}},{{0.13164431f}},{{-0.31351233f}},{{0.51823121f}},{{0.34262773f}},{{0.33052900f}},{{-0.06328277f}},{{-0.15716404f}},{{-0.29042491f}},{{0.26544642f}},{{-0.15346448f}},{{-0.02504412f}},{{0.02273999f}},{{-0.08423246f}},{{0.07794081f}}},{{{-0.15551251f}},{{-0.17171484f}},{{-0.18814328f}},{{0.17432553f}},{{0.38560516f}},{{0.07262996f}},{{-0.07264746f}},{{-0.00851967f}},{{-0.22384998f}},{{0.26357231f}},{{0.08062229f}},{{0.10945444f}},{{0.29504189f}},{{-0.03196070f}},{{-0.36947143f}},{{0.17034167f}},{{0.04282100f}},{{1.27864003f}},{{0.18532649f}},{{-0.02174791f}},{{0.32220832f}},{{0.37076330f}},{{0.27764052f}},{{-0.02019991f}},{{-0.03799807f}},{{-0.44091147f}},{{0.19797409f}},{{0.02793826f}},{{0.05119121f}},{{0.15024994f}},{{0.05053893f}},{{-0.61372322f}}},{{{0.50039744f}},{{0.18884087f}},{{-0.28126669f}},{{-0.04439360f}},{{0.13352437f}},{{-0.45785218f}},{{0.44238964f}},{{-0.53028953f}},{{0.20404787f}},{{-0.00217795f}},{{0.06352083f}},{{-0.21908107f}},{{-0.17843050f}},{{0.03531468f}},{{0.01821567f}},{{-0.55583036f}},{{-0.22233686f}},{{-0.17765816f}},{{0.38614845f}},{{-0.03093317f}},{{-0.07585046f}},{{0.17251647f}},{{0.37790877f}},{{0.18025646f}},{{-0.47524372f}},{{-0.38062724f}},{{0.20110990f}},{{-0.25912827f}},{{-0.11669173f}},{{0.14340016f}},{{0.19613563f}},{{0.35575250f}}},{{{0.03375827f}},{{-0.21357256f}},{{-0.11803760f}},{{-0.07168140f}},{{0.20291655f}},{{0.54097342f}},{{-0.14476645f}},{{0.58112341f}},{{-0.01116658f}},{{0.02109561f}},{{-0.40133867f}},{{-0.01758938f}},{{-0.14304756f}},{{0.10003918f}},{{0.08789530f}},{{0.02545610f}},{{-0.18300655f}},{{0.15693511f}},{{-0.91010213f}},{{0.01600348f}},{{0.13838641f}},{{-0.45896325f}},{{-0.68060839f}},{{0.46487918f}},{{0.06511928f}},{{0.03935637f}},{{-0.25969893f}},{{-0.06145007f}},{{0.68113703f}},{{0.21283194f}},{{-0.17084672f}},{{-0.06740996f}}},{{{0.14749849f}},{{0.09698225f}},{{0.23727053f}},{{-0.02162890f}},{{0.20459586f}},{{-0.11118527f}},{{0.37139055f}},{{0.24281193f}},{{0.11641250f}},{{-0.05828828f}},{{-0.17503650f}},{{0.78790635f}},{{0.07189891f}},{{0.10793099f}},{{-0.19820893f}},{{0.69875562f}},{{-0.24240841f}},{{0.12064299f}},{{-0.41165191f}},{{0.54596084f}},{{-0.20826951f}},{{0.16505641f}},{{0.12136275f}},{{0.04871282f}},{{0.04193014f}},{{-0.11911608f}},{{-0.04371839f}},{{0.30912170f}},{{0.01535358f}},{{-0.19053800f}},{{-0.18442351f}},{{-0.16187726f}}},{{{-0.20705710f}},{{0.03351630f}},{{0.32529083f}},{{-0.17800587f}},{{-0.07091485f}},{{0.07316744f}},{{0.01587775f}},{{-0.11660620f}},{{-0.08800754f}},{{-0.50487733f}},{{0.01900553f}},{{0.27733999f}},{{0.10672378f}},{{0.26777777f}},{{-0.00190311f}},{{-0.17882182f}},{{-0.60804343f}},{{-0.31951210f}},{{-0.07815078f}},{{-0.15877862f}},{{0.20937769f}},{{0.32495385f}},{{0.08964556f}},{{0.55896509f}},{{0.24487935f}},{{0.39053172f}},{{-0.08535955f}},{{-0.32679018f}},{{-0.28608674f}},{{0.95277256f}},{{-0.17304790f}},{{0.02750981f}}},{{{-0.00697428f}},{{-0.21251960f}},{{-0.16418420f}},{{0.00768756f}},{{-0.09846533f}},{{0.32679260f}},{{0.05188059f}},{{0.20844342f}},{{1.19195116f}},{{0.30867237f}},{{0.21968246f}},{{-0.19032246f}},{{0.11631392f}},{{0.03166453f}},{{0.69300640f}},{{-0.07159376f}},{{-0.16721030f}},{{0.06934935f}},{{-0.17971861f}},{{0.06279820f}},{{-0.28272843f}},{{0.56353462f}},{{0.62829977f}},{{0.19562814f}},{{0.01412145f}},{{-0.10357458f}},{{0.24247597f}},{{0.26293340f}},{{-0.32736775f}},{{0.14410950f}},{{0.62934726f}},{{-0.03481673f}}},{{{-0.80436724f}},{{-0.50534385f}},{{-0.38468421f}},{{0.45111936f}},{{0.01856257f}},{{-0.08710240f}},{{0.40103200f}},{{-0.24450657f}},{{0.03663780f}},{{-0.37744206f}},{{0.34632629f}},{{0.31102711f}},{{-0.01695034f}},{{0.23730019f}},{{0.49131662f}},{{-0.09456371f}},{{-0.45391130f}},{{-0.06135528f}},{{-0.25856674f}},{{0.03457849f}},{{0.22000824f}},{{-0.16928992f}},{{0.21200602f}},{{-0.34053236f}},{{0.10765881f}},{{0.17929228f}},{{0.25787866f}},{{-0.29840222f}},{{0.30900258f}},{{0.07846750f}},{{-0.20708330f}},{{-0.15029500f}}},{{{0.25368538f}},{{0.42593226f}},{{-0.34922150f}},{{-0.15270394f}},{{0.05196328f}},{{-0.05060775f}},{{-0.36210176f}},{{0.24516858f}},{{0.47784707f}},{{0.22302262f}},{{-0.18115968f}},{{-0.88090599f}},{{-0.17510027f}},{{-0.09611116f}},{{-0.68250811f}},{{-0.16928424f}},{{-0.01591981f}},{{0.00035434f}},{{-0.10748227f}},{{-0.31828439f}},{{-0.49039426f}},{{0.21811378f}},{{-0.12793276f}},{{-0.06986307f}},{{-1.04678535f}},{{0.22196966f}},{{0.02487600f}},{{0.44520006f}},{{0.00279926f}},{{-0.11154389f}},{{-0.12326106f}},{{-0.29085311f}}},{{{-0.04727273f}},{{0.19935371f}},{{-0.36068922f}},{{0.15027335f}},{{-0.47423527f}},{{-0.01130571f}},{{-0.11686702f}},{{-0.28577393f}},{{-0.15671374f}},{{-0.30319077f}},{{0.08551116f}},{{-0.49842423f}},{{-0.47298178f}},{{-0.35651112f}},{{-0.09034310f}},{{-0.34374478f}},{{-0.66714501f}},{{0.06065689f}},{{0.10250577f}},{{-0.11867897f}},{{0.11815073f}},{{-0.32803366f}},{{-0.15845323f}},{{0.52641457f}},{{-0.01537029f}},{{0.21106514f}},{{-0.35236457f}},{{-0.47036731f}},{{-0.18856300f}},{{-0.47689596f}},{{0.00264485f}},{{0.31540576f}}},{{{-0.09102624f}},{{0.33698493f}},{{0.09319177f}},{{0.39199334f}},{{-0.02793189f}},{{0.04678454f}},{{0.36546862f}},{{-0.15916644f}},{{0.09913448f}},{{0.23800717f}},{{0.49953336f}},{{0.15211786f}},{{-0.73217034f}},{{0.17859121f}},{{-0.19522046f}},{{-0.24185058f}},{{-0.06714337f}},{{-0.09957693f}},{{0.00597469f}},{{0.46224585f}},{{0.22499202f}},{{-0.12044813f}},{{-0.24370247f}},{{0.32666975f}},{{-0.25111985f}},{{-0.07703511f}},{{-0.33729920f}},{{0.15444934f}},{{0.43217650f}},{{0.21843195f}},{{0.05735019f}},{{-0.53512102f}}},{{{0.12821573f}},{{0.26225030f}},{{-0.14774747f}},{{0.32476684f}},{{0.18673396f}},{{-0.37905553f}},{{0.27821666f}},{{0.00449807f}},{{0.17129870f}},{{0.20380628f}},{{-0.09674816f}},{{-0.09232298f}},{{-0.18763545f}},{{0.02212047f}},{{-0.02848125f}},{{-0.25033024f}},{{-0.11559650f}},{{-0.00207304f}},{{0.50692111f}},{{-0.16530804f}},{{0.39404675f}},{{0.19909947f}},{{0.46092227f}},{{-0.05435118f}},{{-0.35192388f}},{{-0.42068964f}},{{0.23202963f}},{{-0.26471958f}},{{-0.70281959f}},{{-0.52612036f}},{{0.13214631f}},{{0.19509020f}}},{{{0.25627533f}},{{-0.16067508f}},{{0.70823234f}},{{-0.04112196f}},{{0.12787651f}},{{-0.14200228f}},{{-0.10283605f}},{{0.22759542f}},{{-0.03256663f}},{{0.05897920f}},{{-0.34284413f}},{{-0.23646566f}},{{-0.34605497f}},{{-0.11496443f}},{{0.23733863f}},{{-0.74573088f}},{{0.19490805f}},{{0.34622440f}},{{-0.11395149f}},{{-0.19741999f}},{{0.47364071f}},{{1.13060987f}},{{0.47707650f}},{{-0.01299089f}},{{-0.35024160f}},{{-0.26688290f}},{{-0.15516758f}},{{-0.00055528f}},{{-0.08426471f}},{{-0.00208483f}},{{0.16801044f}},{{-0.30111921f}}},{{{-0.35692814f}},{{-0.24495316f}},{{0.40557370f}},{{0.08051585f}},{{0.07996743f}},{{0.01919465f}},{{0.35818598f}},{{0.08314627f}},{{-0.12338260f}},{{-0.28908640f}},{{0.31455001f}},{{0.08446991f}},{{-0.16921820f}},{{-0.52171594f}},{{0.45564526f}},{{0.09033074f}},{{-0.17713757f}},{{-0.82412058f}},{{-0.05195980f}},{{0.07139184f}},{{0.01489559f}},{{-0.61952925f}},{{-0.39169931f}},{{-0.04404998f}},{{0.30904511f}},{{-0.23785047f}},{{0.00232148f}},{{0.01184038f}},{{-0.05991291f}},{{-0.28392994f}},{{-0.09700564f}},{{0.58280712f}}},{{{-0.77157491f}},{{-0.68826866f}},{{-0.04693674f}},{{0.47004807f}},{{0.10541429f}},{{0.05713376f}},{{0.69987398f}},{{0.10600591f}},{{-0.21552454f}},{{0.12836012f}},{{-0.07047925f}},{{-0.30331534f}},{{0.11765683f}},{{-0.43536818f}},{{0.26856610f}},{{0.08174072f}},{{-0.11339296f}},{{-0.21885909f}},{{-0.11747819f}},{{-0.56307524f}},{{-0.00548362f}},{{0.02779596f}},{{-0.07680270f}},{{-0.06540586f}},{{-0.28855923f}},{{-0.18538515f}},{{0.15524335f}},{{-0.16599160f}},{{-0.00283910f}},{{-0.20163998f}},{{-0.08691817f}},{{0.03196444f}}},{{{0.32715780f}},{{0.05188753f}},{{-0.48383948f}},{{-0.03511101f}},{{-0.32372129f}},{{0.37514952f}},{{-0.52376908f}},{{0.11588592f}},{{-0.22351651f}},{{-0.27907556f}},{{0.36803895f}},{{0.54201990f}},{{0.17902143f}},{{0.13755335f}},{{0.17674035f}},{{0.06381659f}},{{0.00570337f}},{{0.12318272f}},{{-0.15892984f}},{{0.16994338f}},{{0.08454781f}},{{0.06691518f}},{{-0.09681306f}},{{0.24911875f}},{{-0.14381221f}},{{-0.05063914f}},{{0.07500286f}},{{0.19950287f}},{{0.59124207f}},{{0.35872513f}},{{-0.52884424f}},{{-0.05986803f}}},{{{0.21046835f}},{{0.05965012f}},{{0.21579354f}},{{0.21014178f}},{{-0.37196308f}},{{-0.06197799f}},{{0.24451850f}},{{-0.58323509f}},{{0.07711410f}},{{-0.01912260f}},{{0.26819190f}},{{0.45763490f}},{{-0.47448546f}},{{0.17964561f}},{{0.02367346f}},{{-0.01688554f}},{{-0.87026715f}},{{0.04785499f}},{{0.00882106f}},{{0.13741742f}},{{-0.16369627f}},{{-0.08567531f}},{{0.16966139f}},{{-0.66010529f}},{{0.15778790f}},{{-0.07726633f}},{{0.04192064f}},{{-0.31722903f}},{{0.00104018f}},{{-0.00510545f}},{{0.10597067f}},{{0.59280729f}}},{{{0.07328057f}},{{-0.00123349f}},{{0.31250256f}},{{0.17041714f}},{{0.18912990f}},{{-0.07131970f}},{{-0.24716671f}},{{-0.13497853f}},{{0.23584372f}},{{0.13649270f}},{{1.19654620f}},{{0.32048708f}},{{0.75816321f}},{{0.22306752f}},{{0.09225869f}},{{0.26235560f}},{{-0.19393156f}},{{0.00774677f}},{{0.06888846f}},{{-0.25245419f}},{{0.08901411f}},{{0.05665493f}},{{-0.04488217f}},{{-0.16267176f}},{{0.05098167f}},{{0.09367010f}},{{0.00524204f}},{{-0.26301679f}},{{0.02832091f}},{{-0.39544994f}},{{-0.08737253f}},{{0.28197831f}}},{{{-0.00145629f}},{{-0.04610235f}},{{-0.00495235f}},{{0.50855219f}},{{0.34934938f}},{{-0.08701400f}},{{0.05988114f}},{{0.03589244f}},{{0.41931021f}},{{0.27109215f}},{{0.20810169f}},{{-0.51246679f}},{{0.24167505f}},{{-0.08200796f}},{{0.78087056f}},{{0.29917461f}},{{-0.23297372f}},{{-0.36166003f}},{{-0.40989462f}},{{-0.05239954f}},{{0.26135236f}},{{0.23718709f}},{{0.30724305f}},{{0.40934777f}},{{0.46301165f}},{{0.16087914f}},{{0.42219254f}},{{-0.00842240f}},{{-0.02557843f}},{{-0.30159765f}},{{0.04951980f}},{{-0.31373549f}}},{{{-0.16478758f}},{{-0.35501382f}},{{0.28139758f}},{{-0.31731057f}},{{-0.37785569f}},{{0.16574791f}},{{-0.09959528f}},{{0.07012759f}},{{-0.37058643f}},{{0.06290819f}},{{-0.04119630f}},{{-0.18587479f}},{{-0.48781276f}},{{0.30786231f}},{{0.03653163f}},{{0.14127305f}},{{0.08972044f}},{{0.04748033f}},{{-0.42471904f}},{{-0.02352125f}},{{0.02113361f}},{{-0.52257806f}},{{-0.45522150f}},{{-0.36845857f}},{{0.36088568f}},{{0.12716189f}},{{-0.38293028f}},{{0.44713044f}},{{0.28900415f}},{{-0.39801973f}},{{-0.43228829f}},{{0.20417884f}}},{{{-0.58094150f}},{{-0.55918080f}},{{-0.19040245f}},{{0.18721065f}},{{0.14907068f}},{{0.03851907f}},{{1.10715818f}},{{0.14512332f}},{{-0.31924069f}},{{-0.19577204f}},{{0.00983957f}},{{-0.05151691f}},{{-0.26757899f}},{{-0.10641694f}},{{0.39855337f}},{{0.02708134f}},{{0.00165637f}},{{-0.08384374f}},{{0.02364635f}},{{-0.23310381f}},{{-0.20112877f}},{{0.06435665f}},{{0.20040654f}},{{-0.13564561f}},{{-0.06798768f}},{{-0.09349886f}},{{0.03975710f}},{{-0.31675667f}},{{-0.20195834f}},{{-0.02115642f}},{{-0.12481339f}},{{0.04768069f}}},{{{-0.32502308f}},{{-0.26477990f}},{{0.11960416f}},{{-0.41096917f}},{{-0.34960127f}},{{0.08185991f}},{{-0.34778544f}},{{0.38288164f}},{{-0.55484480f}},{{-1.00887585f}},{{-0.22091517f}},{{0.02736731f}},{{-0.02817587f}},{{-0.53376669f}},{{0.06152553f}},{{0.19851257f}},{{-0.30203140f}},{{0.16280912f}},{{-0.07679802f}},{{0.06520168f}},{{-0.05028315f}},{{-0.90369713f}},{{-0.90535581f}},{{-0.11161897f}},{{0.26090059f}},{{-0.06579825f}},{{-0.80756485f}},{{0.09743711f}},{{0.16766983f}},{{0.19531724f}},{{-0.31114486f}},{{-0.18940276f}}},{{{0.14451756f}},{{0.05117148f}},{{0.09149478f}},{{-0.34354377f}},{{-0.35557732f}},{{0.07789288f}},{{-0.58252758f}},{{-0.06770152f}},{{0.05652882f}},{{0.18351232f}},{{0.03182545f}},{{0.21655108f}},{{-0.24218901f}},{{0.13664247f}},{{-0.50678772f}},{{0.20909515f}},{{0.77003664f}},{{-0.17760541f}},{{-0.06622806f}},{{0.17289002f}},{{-0.34063429f}},{{-0.29313558f}},{{-0.54855704f}},{{-0.02004758f}},{{0.32022262f}},{{0.23014435f}},{{-0.72247124f}},{{0.08898314f}},{{0.36008018f}},{{-0.34480572f}},{{-0.25513059f}},{{-0.11878429f}}},{{{0.02623431f}},{{-0.16141850f}},{{0.13807012f}},{{-0.17040993f}},{{-0.52257526f}},{{1.61030197f}},{{-0.02843173f}},{{-0.38457447f}},{{0.03704453f}},{{-0.14793999f}},{{-0.06376294f}},{{-0.18197234f}},{{-0.14485501f}},{{-0.17319843f}},{{0.18319412f}},{{0.02243274f}},{{-0.24825880f}},{{-0.36300319f}},{{0.06619618f}},{{0.08016961f}},{{0.13507825f}},{{-0.09708524f}},{{0.21285008f}},{{0.09726290f}},{{0.22017157f}},{{-0.17909932f}},{{-0.19193181f}},{{-0.07801668f}},{{-0.03979033f}},{{0.02524927f}},{{-0.09165717f}},{{0.04826422f}}},{{{0.01238115f}},{{-0.19754875f}},{{-0.11951391f}},{{-0.30901918f}},{{0.05213444f}},{{0.80003339f}},{{-0.29376882f}},{{0.37026992f}},{{0.01988946f}},{{0.03250483f}},{{-0.13917896f}},{{0.19050086f}},{{0.42243239f}},{{0.00861515f}},{{-0.07102420f}},{{-0.29338652f}},{{-0.11959852f}},{{0.42495102f}},{{0.08070390f}},{{-0.22385666f}},{{0.05673433f}},{{-0.08199356f}},{{-0.29426345f}},{{-0.49717078f}},{{-0.15392785f}},{{0.34936866f}},{{0.11065540f}},{{0.06722572f}},{{-0.16320175f}},{{-0.30574304f}},{{0.39257386f}},{{-0.02362090f}}},{{{0.14023322f}},{{0.08427954f}},{{-0.07155214f}},{{-0.00525625f}},{{-0.14542477f}},{{-0.09101079f}},{{0.06914447f}},{{-0.37391868f}},{{-0.06675775f}},{{0.09894547f}},{{-0.10982612f}},{{0.20752557f}},{{-0.51149923f}},{{-0.11987742f}},{{0.08312247f}},{{-0.49732429f}},{{0.56271112f}},{{0.04775780f}},{{-0.55475438f}},{{0.27345529f}},{{0.59183902f}},{{-0.22194815f}},{{-0.49875161f}},{{-0.04261367f}},{{-0.57587057f}},{{0.08634038f}},{{-0.42048004f}},{{-0.14578065f}},{{0.31909290f}},{{0.31519678f}},{{0.03246346f}},{{0.02333356f}}},{{{0.21834338f}},{{0.24119398f}},{{-0.44082057f}},{{0.15471242f}},{{0.14979981f}},{{0.23298207f}},{{0.07101788f}},{{-0.11846539f}},{{0.24510904f}},{{-0.02142712f}},{{0.30417624f}},{{-0.19111905f}},{{0.47199851f}},{{-0.14945537f}},{{0.01258969f}},{{-0.13000165f}},{{-0.15329635f}},{{0.11731976f}},{{0.14529081f}},{{-0.34396690f}},{{0.00089654f}},{{0.34346125f}},{{0.20425376f}},{{0.11420493f}},{{-0.53537714f}},{{0.04419820f}},{{0.30967382f}},{{-0.08204532f}},{{0.07873428f}},{{0.79111844f}},{{0.46050727f}},{{-0.01809630f}}},{{{0.02005734f}},{{0.03554263f}},{{0.23508510f}},{{-0.18575963f}},{{0.00075745f}},{{-0.09810644f}},{{-0.13997327f}},{{0.27425411f}},{{0.15524733f}},{{0.14277002f}},{{0.59345758f}},{{-0.24484034f}},{{-0.16905285f}},{{0.10529789f}},{{0.21953838f}},{{-0.10375042f}},{{-0.27824312f}},{{0.38288966f}},{{0.36460316f}},{{-0.73739028f}},{{0.22928555f}},{{0.27640426f}},{{0.18626879f}},{{0.21626349f}},{{0.31522289f}},{{-0.39213130f}},{{0.24944796f}},{{0.14139809f}},{{0.02486386f}},{{0.08624153f}},{{-0.50384104f}},{{0.32955301f}}},{{{0.05677605f}},{{-0.10811096f}},{{-0.09866399f}},{{-0.06911292f}},{{-0.47250912f}},{{0.08485420f}},{{-0.01245058f}},{{0.19086152f}},{{0.06838337f}},{{-0.08934601f}},{{-0.49456447f}},{{-0.32681662f}},{{0.05089489f}},{{-0.02913813f}},{{0.15181987f}},{{-0.13026910f}},{{-0.51496923f}},{{-0.92315990f}},{{-0.28366172f}},{{-0.05640667f}},{{-0.28246552f}},{{-0.18208387f}},{{-0.20325200f}},{{0.12361488f}},{{-0.12373554f}},{{0.15662092f}},{{-0.02056098f}},{{-0.47087562f}},{{-0.03714398f}},{{-0.22431143f}},{{0.28239796f}},{{0.77125138f}}}};

static const float features_1_bn2_scale[64] = {0.75995386f, 1.12439585f, 0.29232734f, 0.40552893f, 0.84809309f, 0.34413230f, 0.69712204f, 1.09360719f, 0.53587133f, 0.27095258f, 0.59107810f, 0.45679924f, 0.54863036f, 0.36473957f, 0.44572511f, 0.93208450f, 0.39954934f, 0.24506411f, 0.49871889f, 0.43571845f, 0.73156762f, 1.00504005f, 0.46847150f, 0.21167198f, 0.48420680f, 0.93607974f, 1.21381521f, 0.57092339f, 0.53551757f, 0.66352850f, 1.17600775f, 0.36639354f, 0.75603211f, 0.24486202f, 0.90379518f, 0.48577771f, 0.72287202f, 0.43974689f, 0.14629902f, 0.30808917f, 0.36114401f, 0.61759454f, 1.23382878f, 0.71029627f, 0.89942193f, 0.75401574f, 0.23555888f, 0.58213991f, 0.52659297f, 0.88221550f, 0.54328650f, 0.45160481f, 0.42245382f, 0.66948450f, 0.33226258f, 0.55108964f, 0.69830191f, 0.25461477f, 0.36050159f, 0.47085354f, 1.14120054f, 0.51303190f, 0.68065101f, 0.28252760f};

static const float features_1_bn2_shift[64] = {0.22341970f, 0.66132480f, 0.30439571f, 1.68578303f, 0.07153577f, 0.30609494f, 0.53359747f, -0.50894374f, 0.98729467f, 0.45624444f, -0.43934500f, 0.54704177f, 1.58502495f, 0.26958516f, -0.38238737f, 0.99969852f, 0.52935040f, 1.00916696f, 0.75247961f, 0.02894142f, -1.18130147f, 0.21467209f, -0.51637137f, 0.52040452f, -0.44368717f, -0.13402759f, 0.11428701f, 1.94427478f, 1.26803994f, 1.60267091f, -1.16150224f, -0.17243117f, -0.61153865f, 0.68165934f, 1.96088243f, 0.81024742f, -0.52361453f, 0.12932150f, 0.68353832f, 0.36494404f, 0.46708736f, -0.44243222f, 1.58404410f, 1.43138242f, 1.80627060f, -1.00077438f, 0.66666001f, 0.58229744f, 0.62465560f, 1.24874413f, 0.18474874f, 0.53920150f, -0.04155603f, -0.05963477f, 1.00732732f, 0.69132495f, 1.71316683f, 0.68927991f, 0.50123286f, 0.36314508f, 0.97586221f, -0.74153763f, -1.16029763f, 1.07029700f};

static const float features_2_deepwise_weight[64][1][3][3] = {{{{-0.27299413f, -0.36662084f, -0.08250575f},{-0.02304946f, 0.34106380f, 0.31792143f},{0.22467357f, 0.62172872f, 0.45993400f}}},{{{0.26573500f, 0.37594602f, 0.22904502f},{0.39193848f, 0.59782928f, 0.21469879f},{0.08230850f, 0.17048590f, 0.04657562f}}},{{{-0.30364820f, 0.14130194f, 0.27302122f},{-0.60915250f, 0.14537878f, 0.43844384f},{-0.42496562f, 0.11294223f, 0.21101707f}}},{{{-0.40361956f, -0.46767229f, -0.40385616f},{0.10367365f, 0.06503712f, -0.17857111f},{0.43964142f, 0.59770274f, 0.23681049f}}},{{{0.01592900f, -0.27887127f, -0.10641325f},{0.13506530f, 0.30631861f, 0.16851920f},{0.37982088f, 0.63797331f, 0.43846345f}}},{{{-0.46347329f, -0.64582211f, -0.48933247f},{-0.07169940f, -0.22956632f, -0.19141193f},{0.15826122f, 0.27360189f, 0.27632758f}}},{{{0.11680924f, 0.32420668f, 0.23912854f},{0.21875235f, 0.55374092f, 0.42692202f},{0.07147282f, 0.22322629f, 0.22454357f}}},{{{0.33590195f, 0.21220577f, -0.06062187f},{0.68367040f, 0.53056931f, 0.02733267f},{0.36786643f, 0.28368935f, 0.08795886f}}},{{{-0.25501171f, -0.55006182f, -0.42010626f},{-0.15756343f, -0.38766879f, -0.31440964f},{-0.18587945f, -0.50074148f, -0.13829806f}}},{{{-0.09653481f, -0.29409185f, -0.37335366f},{0.35319170f, 0.39557707f, 0.50949019f},{-0.21063741f, -0.33578980f, -0.21013345f}}},{{{0.13294169f, 0.43641543f, 0.23808837f},{0.21536580f, 0.43866667f, 0.40186691f},{-0.05060163f, 0.13382930f, 0.32160518f}}},{{{-0.14718445f, -0.35358417f, -0.13019314f},{-0.35781077f, -0.67518139f, -0.42389384f},{-0.24266751f, -0.28282306f, -0.25710759f}}},{{{0.14304398f, 0.24722894f, 0.02074544f},{0.40738043f, 0.65813106f, 0.19281662f},{0.23037997f, 0.43048415f, 0.15002126f}}},{{{0.02802429f, -0.30153832f, -0.49471790f},{0.28321037f, 0.15509619f, -0.45818260f},{0.40735140f, 0.34065130f, -0.22713140f}}},{{{0.14036547f, 0.14707555f, 0.04769959f},{0.27403888f, 0.57918662f, 0.23666050f},{-0.37326476f, -0.54743207f, -0.32317209f}}},{{{-0.04273764f, -0.01741179f, -0.01102702f},{0.28877184f, 0.43890420f, 0.21578845f},{0.40379587f, 0.53375524f, 0.41938174f}}},{{{0.27613786f, 0.23113336f, 0.31600621f},{-0.13474539f, -0.45546034f, -0.15636125f},{-0.41110891f, -0.64462674f, -0.26987019f}}},{{{0.23222765f, 0.33214870f, 0.20697759f},{-0.43826035f, -0.55824441f, -0.34839681f},{0.15056348f, 0.32478723f, 0.10440590f}}},{{{0.36796862f, 0.41043791f, 0.20830522f},{0.10568629f, -0.06227452f, -0.08434773f},{-0.22529987f, -0.54000610f, -0.36192903f}}},{{{0.47723803f, 0.18598565f, -0.12649880f},{0.07320154f, -0.36026692f, -0.36641189f},{-0.43199453f, -0.37247199f, -0.01356104f}}},{{{0.08227143f, 0.06899142f, -0.07971834f},{0.36259526f, 0.64367008f, -0.21684229f},{0.35383192f, 0.56653756f, -0.01074179f}}},{{{-0.14327639f, 0.53613740f, -0.01540324f},{-0.50959218f, 0.23455285f, 0.28606555f},{-0.50285292f, -0.01111024f, -0.02375706f}}},{{{0.14690648f, 0.45727405f, 0.20592685f},{0.09873623f, 0.28387815f, 0.07131886f},{-0.32170022f, -0.63939488f, -0.38037512f}}},{{{0.27158761f, 0.05659182f, -0.30832514f},{0.46123844f, 0.16906065f, -0.62627840f},{0.35092980f, 0.06290426f, -0.38939160f}}},{{{0.25673270f, 0.53109914f, 0.39229184f},{0.15428855f, 0.09701315f, 0.03949906f},{-0.10377561f, -0.45433411f, -0.28504992f}}},{{{0.39370438f, 0.46187630f, 0.28386170f},{0.40632400f, 0.55274475f, 0.39459839f},{0.05481929f, 0.16282421f, 0.05415518f}}},{{{0.19489920f, 0.50590724f, 0.31644198f},{0.33225921f, 0.78910339f, 0.33674422f},{0.06448644f, 0.30389372f, 0.08476490f}}},{{{-0.24382059f, -0.47622654f, -0.17562029f},{-0.28836569f, -0.56854999f, -0.30466738f},{-0.10944254f, -0.39150348f, -0.23073678f}}},{{{-0.21433333f, -0.11309460f, 0.03972947f},{-0.59189671f, -0.37068895f, -0.32255536f},{-0.38584423f, -0.36969239f, -0.43792731f}}},{{{0.12922950f, 0.18606295f, 0.28469637f},{0.35144907f, 0.63300872f, 0.41430166f},{0.20832801f, 0.37925062f, 0.28042743f}}},{{{0.17789587f, 0.09294730f, -0.19203743f},{0.41280645f, 0.49183020f, 0.10006820f},{0.33159965f, 0.51784295f, 0.25950125f}}},{{{-0.27588525f, -0.64504212f, -0.27422473f},{0.14435934f, 0.23140451f, 0.14733854f},{0.24821764f, 0.47378683f, 0.24325505f}}},{{{-0.41921145f, -0.56984448f, -0.38322449f},{-0.53443611f, -0.45047492f, -0.28852215f},{-0.10226069f, -0.07161190f, 0.08252402f}}},{{{-0.42777622f, 0.05608980f, 0.33750018f},{-0.55095077f, 0.18547711f, 0.31513819f},{-0.38229361f, 0.07759350f, 0.13738561f}}},{{{-0.31093675f, -0.27981049f, -0.37137479f},{-0.20254485f, -0.40656224f, -0.38087016f},{-0.24202091f, -0.48392883f, -0.30252847f}}},{{{0.68456286f, 0.06352762f, -0.42394340f},{0.50302297f, -0.00380500f, -0.28879479f},{-0.06317183f, 0.04675557f, 0.07319179f}}},{{{-0.55003029f, -0.03292245f, 0.22034042f},{-0.26223877f, 0.46680182f, 0.41747841f},{-0.11079071f, 0.29669598f, 0.41391516f}}},{{{0.34144670f, 0.67732710f, -0.03884488f},{0.37872031f, 0.81712490f, 0.01358167f},{-0.10009757f, 0.09047464f, -0.24092382f}}},{{{0.09389155f, 0.18740150f, 0.09871420f},{-0.29716474f, -0.70168924f, -0.31375134f},{0.25039259f, 0.54358155f, 0.23404701f}}},{{{-0.29111394f, -0.50446695f, -0.34628704f},{0.25662220f, 0.31316736f, 0.18318513f},{0.28563663f, 0.45606381f, 0.27446270f}}},{{{-0.09805901f, -0.41293857f, -0.46733457f},{0.15904343f, 0.12606134f, -0.31436914f},{0.42119089f, 0.62360084f, 0.17285556f}}},{{{-0.14669792f, -0.16349305f, -0.21310398f},{-0.46568352f, -0.53851342f, -0.31239951f},{-0.25216016f, -0.48057973f, -0.27735806f}}},{{{0.03261128f, 0.04187087f, 0.00432353f},{0.20523006f, 0.46123415f, 0.45880243f},{0.13608220f, 0.45474368f, 0.39862588f}}},{{{-0.07271903f, -0.33727655f, -0.42530772f},{-0.12507245f, -0.44284368f, -0.66090077f},{0.01185823f, -0.22037381f, -0.39446405f}}},{{{0.45017391f, 0.57476825f, 0.10247523f},{0.54074699f, 0.67981911f, 0.13995768f},{0.09335355f, 0.05152181f, -0.07177269f}}},{{{0.26418349f, 0.38359404f, 0.34931016f},{0.34199411f, 0.29222474f, 0.48793578f},{0.18613160f, 0.09209617f, 0.21791169f}}},{{{0.15930913f, -0.28341183f, 0.16939409f},{0.18318740f, -0.62654054f, 0.34095138f},{0.26099569f, -0.44659716f, 0.20267369f}}},{{{-0.04637941f, -0.11455566f, -0.09188323f},{-0.22834757f, -0.38883913f, -0.37752405f},{-0.45506775f, -0.55056065f, -0.26124027f}}},{{{0.28986165f, 0.21532509f, -0.03035456f},{0.47860050f, -0.07115656f, -0.40194434f},{0.26633382f, -0.22452708f, -0.42291486f}}},{{{0.20779404f, 0.42546916f, 0.27137420f},{0.32909012f, 0.57515877f, 0.30121672f},{0.32300419f, 0.21780112f, -0.11785475f}}},{{{-0.11994135f, -0.36932087f, -0.27724102f},{-0.21981230f, -0.33101970f, -0.60281026f},{0.24027118f, 0.24569070f, -0.39246553f}}},{{{-0.10162150f, -0.32109436f, -0.14199722f},{-0.12560152f, -0.25383434f, -0.09253626f},{0.37634203f, 0.72183925f, 0.29852086f}}},{{{-0.21716295f, 0.36830324f, 0.30169797f},{-0.52079499f, 0.27502817f, 0.45957768f},{-0.50447357f, -0.06240088f, 0.19868986f}}},{{{-0.18112238f, -0.11550750f, 0.02000262f},{-0.03033497f, 0.50301492f, 0.48610750f},{0.05159585f, 0.52842122f, 0.42316088f}}},{{{-0.51386255f, 0.20934749f, 0.28866026f},{-0.51622045f, 0.29308623f, 0.26137483f},{-0.24959190f, 0.19737267f, 0.11927628f}}},{{{-0.34226128f, -0.31541151f, -0.18219702f},{-0.21643028f, -0.50342083f, -0.46385914f},{-0.00198405f, -0.28210786f, -0.30186287f}}},{{{0.40268877f, 0.24094322f, 0.00319412f},{0.55937904f, 0.53227276f, 0.17882267f},{0.32543665f, 0.31993580f, -0.00695890f}}},{{{0.26300320f, 0.11384109f, -0.16124097f},{0.08355904f, -0.45887884f, -0.55481875f},{-0.11906413f, -0.61785400f, -0.43651128f}}},{{{-0.41794023f, -0.54519278f, -0.34725946f},{0.09572259f, 0.24247731f, 0.02397082f},{0.33910248f, 0.48165950f, 0.18753046f}}},{{{-0.39285570f, -0.34462187f, -0.06089799f},{-0.15515502f, 0.04873824f, 0.26056263f},{0.00978283f, 0.53123677f, 0.48019573f}}},{{{-0.31039718f, -0.50449729f, -0.26097080f},{-0.41991371f, -0.71021330f, -0.18599240f},{0.02808634f, -0.35895276f, 0.14161907f}}},{{{0.17549860f, 0.29659724f, -0.08357178f},{0.25494555f, 0.73695046f, -0.05217392f},{0.25010228f, 0.54572576f, 0.04580462f}}},{{{0.03810594f, -0.05760278f, -0.03080234f},{0.25185502f, 0.62996447f, 0.33938029f},{0.23639338f, 0.54174256f, 0.27107075f}}},{{{-0.23129885f, -0.04807946f, 0.32959878f},{-0.39238194f, -0.07194537f, 0.46137708f},{-0.36104652f, 0.05424641f, 0.33779216f}}}};

static const float features_2_bn1_scale[64] = {0.90007532f, 0.61122251f, 2.48482871f, 1.48868477f, 0.86451590f, 1.50590301f, 0.90064186f, 0.92501616f, 1.03504741f, 2.92970014f, 1.66895533f, 1.54582834f, 1.43819833f, 1.42458153f, 1.70120609f, 0.72485965f, 1.45572221f, 2.65472841f, 1.51339424f, 1.55194950f, 0.81369752f, 0.92334819f, 1.71530044f, 2.96175480f, 1.48018849f, 1.04976070f, 0.60870433f, 1.09727895f, 1.31258905f, 1.08351815f, 0.66196907f, 1.79617143f, 0.99091309f, 3.11889648f, 0.87404281f, 1.27794755f, 0.93969452f, 1.04052711f, 4.81774521f, 1.67852938f, 1.60691452f, 1.12964046f, 0.63821405f, 0.86228091f, 0.72813702f, 0.94148719f, 3.22341704f, 1.29376435f, 1.53650475f, 1.30356705f, 0.94011050f, 1.78837812f, 1.51359189f, 0.85984641f, 2.99230933f, 1.39869618f, 1.04656851f, 2.28127170f, 2.10113454f, 1.55491018f, 0.78062117f, 1.28342545f, 1.31011939f, 3.11152101f};

static const float features_2_bn1_shift[64] = {-0.18328601f, -0.28304201f, -0.02146414f, 0.17013361f, -0.01845613f, 1.16356003f, 0.07812244f, -0.06758156f, 1.66603982f, -0.13015032f, -0.26701927f, 1.94670689f, -1.23673403f, 0.62274814f, -0.25790524f, -0.05599886f, 1.38066173f, -0.15721324f, 0.58230233f, 1.51078820f, -0.02073833f, -0.03440871f, 0.28027201f, -0.24056220f, -0.04451685f, -0.17752522f, -0.01639652f, 2.30966759f, 1.37010014f, -0.05926749f, 0.01693678f, 0.03064013f, 1.56626105f, 0.33452615f, 1.46949601f, 0.15309003f, -0.24471945f, 0.20530111f, -0.47400621f, -0.41884989f, -0.03851961f, 1.91853261f, -0.50304186f, 1.63915277f, -0.07244098f, -0.50540835f, -0.23470843f, 1.54801655f, 0.30275682f, -0.80336994f, 1.58474648f, -0.12864262f, -0.09331529f, 0.00002986f, -0.80533201f, 2.17505836f, -0.47757959f, 2.81020617f, -0.00695559f, -0.22268841f, 1.32208502f, -0.38649678f, 0.02542627f, -0.29300067f};

static const float features_2_pointwise_weight[128][64][1][1] = {{{{0.35997286f}},{{0.04381117f}},{{0.36387599f}},{{0.41208482f}},{{0.12254691f}},{{-0.00284021f}},{{0.14875008f}},{{0.04761846f}},{{-0.17802836f}},{{-0.12500337f}},{{0.07137370f}},{{0.01847171f}},{{0.04891393f}},{{0.07807827f}},{{-0.44001758f}},{{-0.40463367f}},{{0.00403547f}},{{-0.22608288f}},{{-0.03655522f}},{{0.18256316f}},{{-0.06831856f}},{{-0.33046147f}},{{0.05154911f}},{{0.31113276f}},{{0.48413578f}},{{0.14616846f}},{{0.16496810f}},{{-0.35683340f}},{{-0.23988633f}},{{-0.18641615f}},{{0.13553283f}},{{-0.86187381f}},{{0.18561545f}},{{-0.18080035f}},{{0.81535101f}},{{-0.27755442f}},{{0.39664826f}},{{-0.03187742f}},{{-0.26327777f}},{{-0.26035124f}},{{0.73460817f}},{{0.52149904f}},{{0.06813281f}},{{0.05699610f}},{{0.17339545f}},{{-0.98291796f}},{{-0.30047327f}},{{0.31424773f}},{{-0.27331060f}},{{-0.06651631f}},{{-0.15457818f}},{{-0.05243761f}},{{0.06849120f}},{{0.05981223f}},{{-0.39198560f}},{{0.08153339f}},{{0.11859371f}},{{0.43245482f}},{{0.31606105f}},{{0.19130090f}},{{0.30071384f}},{{-0.30491409f}},{{0.23566195f}},{{0.02989537f}}},{{{-0.05379798f}},{{-0.14724477f}},{{0.25145605f}},{{-0.69449937f}},{{0.21595450f}},{{0.09057306f}},{{0.24342768f}},{{0.47886074f}},{{0.12709223f}},{{-0.83651823f}},{{0.34871849f}},{{0.19898981f}},{{-0.28314179f}},{{-0.36290878f}},{{-0.46686497f}},{{-0.15613240f}},{{0.39455101f}},{{-0.68355483f}},{{-0.28553081f}},{{-0.33997378f}},{{-0.23667705f}},{{-0.32670578f}},{{-0.27461058f}},{{0.01691142f}},{{-0.03869938f}},{{0.20711643f}},{{0.01488175f}},{{0.11775693f}},{{0.20654957f}},{{0.13573909f}},{{-0.00740280f}},{{-0.05327341f}},{{0.03798364f}},{{-0.29752219f}},{{-0.19059654f}},{{-0.41720268f}},{{-0.09935549f}},{{0.09581684f}},{{-0.01662201f}},{{-0.03244542f}},{{-0.20642525f}},{{-0.10129917f}},{{0.12790720f}},{{-0.20479031f}},{{0.52581686f}},{{0.20341833f}},{{-0.45844945f}},{{-0.05309167f}},{{-0.23411952f}},{{0.24946959f}},{{0.53665054f}},{{0.28284022f}},{{-0.33129960f}},{{0.28374878f}},{{0.48475415f}},{{0.05022728f}},{{-0.29530412f}},{{0.55795431f}},{{-0.31774890f}},{{0.01361028f}},{{-0.45876041f}},{{0.13301580f}},{{-0.00648213f}},{{0.17194270f}}},{{{0.06614336f}},{{-0.20683599f}},{{0.18404676f}},{{-0.13959777f}},{{-0.05649285f}},{{-0.22580551f}},{{0.33665398f}},{{0.65645200f}},{{-0.12975098f}},{{-0.03207689f}},{{-0.37921420f}},{{0.15362270f}},{{-0.24397254f}},{{0.05416612f}},{{0.23419064f}},{{-0.33096877f}},{{-0.15089472f}},{{0.09233265f}},{{-0.44115296f}},{{0.31049812f}},{{0.18653348f}},{{0.23753418f}},{{0.09705482f}},{{0.27887663f}},{{0.09116661f}},{{0.13596007f}},{{0.35369024f}},{{-0.37599790f}},{{-0.06633433f}},{{-0.03430458f}},{{-0.48402414f}},{{0.02858217f}},{{0.22843844f}},{{0.28973117f}},{{0.43871820f}},{{0.18001997f}},{{0.01316042f}},{{0.06653394f}},{{0.15238400f}},{{-0.78399295f}},{{0.17198060f}},{{0.03555944f}},{{-0.40174049f}},{{-0.41102448f}},{{0.15553382f}},{{-0.10368484f}},{{-0.26240292f}},{{-0.16377193f}},{{-0.10019295f}},{{-0.40398648f}},{{-0.06397241f}},{{-0.14417832f}},{{0.33729333f}},{{0.14516844f}},{{0.46442470f}},{{0.30990648f}},{{-0.40292227f}},{{-0.47202909f}},{{0.00707750f}},{{0.24499625f}},{{-0.25988474f}},{{-0.01289573f}},{{-0.22562122f}},{{0.24645092f}}},{{{0.18250595f}},{{0.38270530f}},{{-0.56556892f}},{{0.08854353f}},{{-0.04104969f}},{{-0.30252135f}},{{0.02301273f}},{{-0.09685906f}},{{0.30931616f}},{{0.09720267f}},{{-0.27694839f}},{{0.12174128f}},{{0.36672276f}},{{-0.34243244f}},{{-0.22910143f}},{{-0.32763848f}},{{-0.27708405f}},{{0.17234518f}},{{-0.17893419f}},{{-0.09220612f}},{{0.19695917f}},{{0.34601197f}},{{-0.01647709f}},{{-0.74804306f}},{{0.05340179f}},{{-0.12941645f}},{{-0.27750444f}},{{0.00147352f}},{{-0.43288010f}},{{0.15013723f}},{{-0.28973407f}},{{0.29110166f}},{{-0.47843009f}},{{0.61239135f}},{{-0.06178180f}},{{0.03433365f}},{{-0.12663601f}},{{0.46122244f}},{{0.06789903f}},{{-0.17808752f}},{{-0.37707719f}},{{0.44213501f}},{{0.07345333f}},{{0.13457662f}},{{0.14766708f}},{{0.02156969f}},{{0.31887901f}},{{0.55176717f}},{{-0.17215516f}},{{-0.03872565f}},{{-0.29678008f}},{{-0.16133815f}},{{-0.11849014f}},{{-0.46374333f}},{{0.30675432f}},{{-0.06778377f}},{{-0.04241815f}},{{-0.60661864f}},{{-0.14183110f}},{{-0.15464944f}},{{-0.05187746f}},{{-0.41899180f}},{{-0.15941440f}},{{-0.15908502f}}},{{{0.31838217f}},{{-0.01434657f}},{{0.02981992f}},{{0.09641709f}},{{-0.12490174f}},{{-0.02607159f}},{{0.19391680f}},{{-0.19154581f}},{{0.27017778f}},{{0.11804032f}},{{-0.42184338f}},{{-0.73948407f}},{{0.36667898f}},{{-0.00970977f}},{{0.15840551f}},{{0.42381445f}},{{-0.08811231f}},{{0.77529109f}},{{-0.27969971f}},{{0.12032990f}},{{-0.10761000f}},{{0.06310351f}},{{-0.01506063f}},{{-0.16408521f}},{{0.23109609f}},{{0.15142499f}},{{0.53194475f}},{{-0.05865930f}},{{0.21649139f}},{{0.42553705f}},{{-0.29622951f}},{{-0.23458406f}},{{0.06840917f}},{{-0.36764506f}},{{0.02048965f}},{{0.17141055f}},{{-0.52818805f}},{{-0.21448098f}},{{0.09704924f}},{{-0.09628929f}},{{0.05593142f}},{{0.30008674f}},{{-0.14328238f}},{{0.03878361f}},{{-0.29833263f}},{{-0.09773779f}},{{0.51787984f}},{{0.01206254f}},{{-0.06211711f}},{{-0.25449497f}},{{0.14551109f}},{{-0.01331862f}},{{-0.13931772f}},{{-0.20653537f}},{{-0.20985806f}},{{-0.07845690f}},{{-0.15711382f}},{{0.57600725f}},{{0.32015529f}},{{0.12586202f}},{{0.29271719f}},{{-0.55011880f}},{{-0.31234628f}},{{-0.44715244f}}},{{{-0.28521994f}},{{0.27701926f}},{{-0.05276215f}},{{0.51476467f}},{{0.45267281f}},{{-0.39282694f}},{{0.29828259f}},{{-0.18952191f}},{{-0.26723859f}},{{-0.04537698f}},{{-0.31482205f}},{{0.13829800f}},{{-0.61336786f}},{{-0.01322054f}},{{-0.05268423f}},{{-0.20045809f}},{{0.22552209f}},{{0.09113991f}},{{0.30143642f}},{{-0.06133519f}},{{0.27820495f}},{{0.50286311f}},{{0.11339924f}},{{-0.22102214f}},{{-0.04524738f}},{{-0.41982734f}},{{-0.05856730f}},{{0.34567937f}},{{-0.15800522f}},{{0.16090040f}},{{-0.38510758f}},{{0.30715382f}},{{-0.36902854f}},{{-0.24867506f}},{{-0.68265468f}},{{0.01667953f}},{{0.28319457f}},{{-0.23461629f}},{{0.30366507f}},{{0.21419422f}},{{-0.23762101f}},{{-0.13145226f}},{{-0.06606350f}},{{0.58483565f}},{{0.16475469f}},{{0.39565492f}},{{0.09379096f}},{{0.33886901f}},{{0.13503250f}},{{0.07459382f}},{{-0.41514739f}},{{0.04891122f}},{{-0.02826801f}},{{-0.34094611f}},{{-0.35957220f}},{{-0.24732278f}},{{0.03135258f}},{{-0.25181165f}},{{0.16422018f}},{{-0.04614916f}},{{-0.35464075f}},{{-0.21057680f}},{{0.15551122f}},{{0.38750434f}}},{{{0.39736122f}},{{-0.55385935f}},{{-0.05129226f}},{{0.00728119f}},{{0.06410830f}},{{-0.63005370f}},{{0.23578827f}},{{-0.26473284f}},{{-0.65532458f}},{{-0.60283732f}},{{-0.12455694f}},{{-0.04792298f}},{{0.10126209f}},{{0.09041323f}},{{-0.01974133f}},{{0.12795147f}},{{0.11965870f}},{{-0.08330914f}},{{-0.06762228f}},{{0.08305013f}},{{-0.41145748f}},{{-0.11889055f}},{{-0.19986942f}},{{0.11339801f}},{{-0.08664067f}},{{0.02528261f}},{{0.01680534f}},{{-0.48645055f}},{{0.11738945f}},{{-0.43303362f}},{{-0.00015933f}},{{-0.05913347f}},{{0.06083291f}},{{-0.18003690f}},{{-0.38422388f}},{{0.18779658f}},{{-0.02562507f}},{{0.44387969f}},{{-0.05608255f}},{{-0.43139941f}},{{0.08094197f}},{{0.24282303f}},{{-0.01196693f}},{{-0.16176108f}},{{-0.15887392f}},{{0.98364151f}},{{-0.22778369f}},{{-0.14514741f}},{{0.27267972f}},{{-0.11072776f}},{{-0.13381796f}},{{0.27315199f}},{{0.04307472f}},{{0.31559128f}},{{-0.35304078f}},{{0.01265600f}},{{-0.27664185f}},{{0.17311789f}},{{0.21783541f}},{{-0.41636127f}},{{-0.50539213f}},{{-0.08389335f}},{{-0.11677596f}},{{-0.00037001f}}},{{{-0.55386209f}},{{-0.20428212f}},{{-0.24995288f}},{{0.27060258f}},{{-0.39864334f}},{{0.39972192f}},{{-0.52662963f}},{{0.43452194f}},{{-0.25946268f}},{{-0.18272558f}},{{-0.10205363f}},{{0.22100762f}},{{0.00795809f}},{{-0.25063348f}},{{-0.02032685f}},{{-0.11231676f}},{{-0.17857443f}},{{-0.30930823f}},{{0.30831683f}},{{0.24607253f}},{{0.19448635f}},{{-0.16301751f}},{{0.01983489f}},{{-0.06391859f}},{{-0.11992019f}},{{-0.13365056f}},{{0.07139586f}},{{0.13264355f}},{{0.37010494f}},{{0.28497142f}},{{-0.52148461f}},{{0.25599849f}},{{-0.19637698f}},{{-0.13307953f}},{{-0.07306585f}},{{-0.01543645f}},{{-0.34227341f}},{{0.17860322f}},{{0.37307063f}},{{0.28758833f}},{{-0.30702314f}},{{0.00614819f}},{{0.31961322f}},{{-0.18062158f}},{{0.02148714f}},{{-0.48588255f}},{{-0.09688798f}},{{0.29740861f}},{{-0.31607941f}},{{0.18901661f}},{{0.00075887f}},{{0.28969961f}},{{0.06309771f}},{{-0.66875774f}},{{-0.37697986f}},{{-0.35848284f}},{{-0.35960811f}},{{0.12843752f}},{{-0.41355938f}},{{0.03333450f}},{{-0.03344574f}},{{0.25914678f}},{{0.26974007f}},{{-0.33952376f}}},{{{-0.17847237f}},{{0.43947777f}},{{-0.22561127f}},{{0.09977931f}},{{0.13782871f}},{{-0.22415823f}},{{0.36809310f}},{{-0.11186697f}},{{0.36448270f}},{{-0.04381032f}},{{-0.17011945f}},{{0.26412496f}},{{-0.03491122f}},{{-0.00320552f}},{{0.23695982f}},{{0.12933734f}},{{0.20380190f}},{{0.10037214f}},{{0.02224816f}},{{-0.13221541f}},{{-0.04793601f}},{{0.16701585f}},{{0.27020997f}},{{0.17800397f}},{{0.29859936f}},{{-0.07288430f}},{{-0.34941727f}},{{-0.68406403f}},{{-0.15251496f}},{{-0.02410341f}},{{-0.07872806f}},{{-0.32101780f}},{{0.01906008f}},{{-0.06526305f}},{{0.19822879f}},{{-0.07608445f}},{{-0.29910687f}},{{0.17498340f}},{{-0.16887322f}},{{0.32151183f}},{{-0.50545841f}},{{0.24504751f}},{{-0.15756881f}},{{0.13118832f}},{{-0.24424115f}},{{-0.23521131f}},{{0.24799685f}},{{0.15332749f}},{{-0.09708726f}},{{0.19001032f}},{{0.05913535f}},{{0.02580593f}},{{-0.14260885f}},{{-0.63178945f}},{{-0.05885404f}},{{0.08083849f}},{{0.17400263f}},{{-0.14074732f}},{{1.27309120f}},{{0.91006321f}},{{0.31853151f}},{{-0.24957019f}},{{0.00655878f}},{{0.00717305f}}},{{{-0.29128167f}},{{-0.18908143f}},{{0.18818903f}},{{0.13212621f}},{{-0.13199669f}},{{-0.44845539f}},{{0.04994852f}},{{0.37731495f}},{{-0.62763226f}},{{-0.50444788f}},{{0.47896028f}},{{-0.37194520f}},{{-0.20189762f}},{{-0.19270109f}},{{0.06619585f}},{{-0.07714618f}},{{0.47515553f}},{{-0.06814658f}},{{0.44166550f}},{{0.12013508f}},{{-0.20848852f}},{{-0.22106990f}},{{0.17727824f}},{{0.46784249f}},{{0.24724725f}},{{-0.17521626f}},{{0.39228982f}},{{-0.03930070f}},{{-0.47229773f}},{{-0.07401922f}},{{-0.23554149f}},{{-0.00091968f}},{{0.38290074f}},{{-0.78172117f}},{{-0.26317644f}},{{0.14086421f}},{{-0.40070736f}},{{-0.22335082f}},{{-0.10168702f}},{{0.22602437f}},{{0.09984419f}},{{-0.25953084f}},{{-0.00804500f}},{{-0.11899517f}},{{-0.37207085f}},{{0.27498326f}},{{-0.25243083f}},{{0.02542180f}},{{0.47448006f}},{{0.13383915f}},{{-0.17547345f}},{{-0.23778827f}},{{-0.02947884f}},{{0.20172678f}},{{-0.08735719f}},{{-0.23899284f}},{{0.25556743f}},{{-0.01833590f}},{{-0.32148364f}},{{0.23118997f}},{{-0.01090357f}},{{0.41656664f}},{{-0.10461865f}},{{0.18250079f}}},{{{-0.27923015f}},{{-0.13924435f}},{{-0.05255435f}},{{0.19556575f}},{{-0.15896162f}},{{0.32559755f}},{{-0.12157661f}},{{0.23084928f}},{{0.01686608f}},{{0.05150890f}},{{0.11306376f}},{{-0.03844190f}},{{0.33071113f}},{{0.09702538f}},{{0.28952426f}},{{-0.04488654f}},{{-0.35598701f}},{{0.45747763f}},{{0.17668205f}},{{0.01168192f}},{{0.28333980f}},{{0.51730442f}},{{0.18190619f}},{{0.33352581f}},{{-0.58733976f}},{{0.01246229f}},{{-0.08720748f}},{{0.08470719f}},{{0.26096579f}},{{-0.06997167f}},{{0.39611152f}},{{-0.32885581f}},{{-0.08500735f}},{{1.00215077f}},{{0.25579974f}},{{-0.11344665f}},{{0.13384970f}},{{0.48623770f}},{{-0.20879729f}},{{0.27582300f}},{{0.23068313f}},{{0.04483423f}},{{0.21893103f}},{{0.29758266f}},{{-0.00826031f}},{{0.01947282f}},{{0.48132053f}},{{0.00290817f}},{{-0.09236360f}},{{-0.68188667f}},{{0.00957975f}},{{-0.03098825f}},{{0.26283842f}},{{-0.00315330f}},{{0.28707722f}},{{-0.05621436f}},{{-0.11703078f}},{{0.09983418f}},{{0.35735804f}},{{-0.07460221f}},{{-0.05769818f}},{{0.15587220f}},{{-0.40156087f}},{{-0.50307047f}}},{{{-0.05934465f}},{{0.12141202f}},{{0.11817206f}},{{0.19135505f}},{{-0.12499307f}},{{-0.35405910f}},{{0.06858565f}},{{-0.13735154f}},{{0.00531004f}},{{-0.44255677f}},{{0.04200162f}},{{0.19561458f}},{{-0.05878399f}},{{0.26890510f}},{{-0.09342176f}},{{-0.40785041f}},{{-0.22905852f}},{{-0.28917930f}},{{-0.01309941f}},{{-0.26785317f}},{{-0.06843369f}},{{-0.08327285f}},{{-0.04564673f}},{{0.23571056f}},{{-0.52982420f}},{{-0.69859165f}},{{0.16354217f}},{{0.41256654f}},{{-0.42315769f}},{{0.31642911f}},{{0.12787898f}},{{-0.18143190f}},{{-0.35585603f}},{{0.19813377f}},{{-0.15269549f}},{{-0.04264290f}},{{0.05558335f}},{{0.11748844f}},{{0.00248468f}},{{-0.50986606f}},{{-0.48506838f}},{{-0.22795869f}},{{0.43346664f}},{{-0.81883645f}},{{0.26282024f}},{{0.17934252f}},{{0.13401736f}},{{0.13963036f}},{{0.51525640f}},{{0.00131840f}},{{0.15665652f}},{{0.04340252f}},{{0.23354745f}},{{0.38888967f}},{{0.16028726f}},{{0.25852662f}},{{-0.00338474f}},{{-0.26705220f}},{{-0.43063134f}},{{0.03433623f}},{{0.77399421f}},{{-0.09510272f}},{{-0.17807096f}},{{-0.17877392f}}},{{{0.05668173f}},{{-0.16524313f}},{{-0.41946325f}},{{-0.15631723f}},{{0.12138500f}},{{0.17202866f}},{{-0.07189208f}},{{-0.58517599f}},{{-0.53122699f}},{{-0.08761456f}},{{-0.09629204f}},{{-0.10592765f}},{{0.28553385f}},{{0.47911197f}},{{-0.21197902f}},{{0.02724146f}},{{-0.28427967f}},{{-0.25243551f}},{{0.15479429f}},{{-0.29958656f}},{{0.27944621f}},{{-0.01185677f}},{{0.28157049f}},{{-0.52431077f}},{{-0.01094867f}},{{0.26662201f}},{{0.40557671f}},{{0.02179231f}},{{-0.02460350f}},{{-0.48238942f}},{{0.14310914f}},{{-0.12764801f}},{{-0.52942836f}},{{-0.50499648f}},{{-0.10643598f}},{{-0.08402826f}},{{-0.27714580f}},{{0.49776906f}},{{0.28935662f}},{{-0.13874587f}},{{-0.06562291f}},{{-0.00388467f}},{{-0.02286394f}},{{-0.41139561f}},{{-0.25446555f}},{{-0.02013715f}},{{-0.08766162f}},{{-0.38252729f}},{{-0.02692240f}},{{-0.77255744f}},{{-0.08131985f}},{{0.33648524f}},{{-0.01758501f}},{{-0.23422638f}},{{0.33302525f}},{{0.30060086f}},{{-0.10314497f}},{{0.01069239f}},{{0.21203765f}},{{-0.51448566f}},{{-0.31180567f}},{{-0.09535242f}},{{-0.06708793f}},{{0.34958389f}}},{{{-0.23566818f}},{{-0.04696902f}},{{-0.26844272f}},{{-0.48283088f}},{{-0.03872775f}},{{-0.08101164f}},{{-0.33250034f}},{{0.26886302f}},{{0.18337466f}},{{0.31955686f}},{{-0.03851863f}},{{0.17667218f}},{{0.13955736f}},{{-0.06655589f}},{{0.36014694f}},{{0.12960024f}},{{-0.01070868f}},{{-0.35436097f}},{{0.44552860f}},{{0.13693509f}},{{0.25325373f}},{{0.14044817f}},{{-0.21024443f}},{{-0.19625288f}},{{-0.00717868f}},{{-0.48745447f}},{{-0.14586222f}},{{0.13111223f}},{{0.21345174f}},{{0.10116730f}},{{0.18041073f}},{{0.07355659f}},{{-0.39733443f}},{{0.59797782f}},{{-0.36965778f}},{{-0.09808867f}},{{0.13730288f}},{{0.75443274f}},{{0.36131814f}},{{0.02102908f}},{{-0.19176990f}},{{0.06233360f}},{{-0.10040379f}},{{0.43519539f}},{{0.51695365f}},{{0.07868437f}},{{0.76047051f}},{{-0.00710054f}},{{-0.20309345f}},{{-0.02651159f}},{{-0.30171266f}},{{0.02820126f}},{{-0.29321349f}},{{-0.23894762f}},{{0.28852966f}},{{-0.13383226f}},{{0.21045993f}},{{0.10008301f}},{{0.03583924f}},{{-0.28665307f}},{{0.70989019f}},{{0.02968531f}},{{0.21410790f}},{{-0.16340816f}}},{{{0.07249163f}},{{-0.18719906f}},{{-0.04759563f}},{{-0.27747309f}},{{-0.09407010f}},{{0.03573155f}},{{0.19771343f}},{{0.04533264f}},{{-0.03601065f}},{{-0.05998660f}},{{0.20629555f}},{{0.49199742f}},{{0.15256655f}},{{-0.06064881f}},{{-0.27479842f}},{{0.25184742f}},{{0.19145478f}},{{-0.45535886f}},{{-0.17464781f}},{{0.33222318f}},{{-0.16209412f}},{{-0.21088299f}},{{0.29568753f}},{{0.34631634f}},{{-0.01361583f}},{{-0.18706539f}},{{0.03217021f}},{{-0.34245348f}},{{0.22015600f}},{{0.37473112f}},{{-0.23825605f}},{{0.17673604f}},{{0.42793265f}},{{-0.14586799f}},{{-0.07327993f}},{{0.07241647f}},{{0.24708620f}},{{0.31973645f}},{{0.12039290f}},{{-0.34444755f}},{{0.20426117f}},{{0.14442313f}},{{0.15335248f}},{{0.10363748f}},{{0.58900785f}},{{0.21440962f}},{{-0.18840198f}},{{-0.10838263f}},{{-0.07157922f}},{{-0.11496618f}},{{0.30198550f}},{{-0.33923912f}},{{0.13100384f}},{{0.64631593f}},{{-0.09600175f}},{{-0.27981171f}},{{0.05723692f}},{{-0.13293953f}},{{0.12897728f}},{{0.13227023f}},{{0.57513463f}},{{-0.82761514f}},{{-0.28209978f}},{{-0.02040588f}}},{{{-0.03976824f}},{{-0.34764019f}},{{0.13753784f}},{{0.39464325f}},{{-0.15179498f}},{{-0.01281089f}},{{-0.74507844f}},{{0.41417816f}},{{-0.20202655f}},{{-0.00423045f}},{{0.23999549f}},{{0.61210352f}},{{0.35099950f}},{{0.06390918f}},{{-0.88596964f}},{{-0.41585466f}},{{-0.47273138f}},{{0.09295171f}},{{-0.08146441f}},{{-0.25967869f}},{{0.14048718f}},{{0.29903120f}},{{0.02836399f}},{{0.42186987f}},{{0.31728813f}},{{0.33756137f}},{{0.02456040f}},{{-0.01842218f}},{{-0.32374585f}},{{-0.20008332f}},{{-0.22834218f}},{{-0.12407558f}},{{-0.70945710f}},{{0.12129662f}},{{0.36113352f}},{{-0.03352341f}},{{-0.07755263f}},{{0.24659987f}},{{-0.27006733f}},{{-0.08239985f}},{{-0.03448752f}},{{-0.00358997f}},{{0.05473631f}},{{-0.03685556f}},{{0.40552810f}},{{0.10674180f}},{{0.33070996f}},{{0.35915193f}},{{-0.33252525f}},{{-0.12543887f}},{{-0.38270828f}},{{-0.30667755f}},{{0.09968738f}},{{-0.04716240f}},{{-0.10024025f}},{{-0.10527504f}},{{0.22648528f}},{{0.04238507f}},{{-0.01766461f}},{{0.17847352f}},{{0.15417694f}},{{0.28214166f}},{{-0.01004946f}},{{0.02178907f}}},{{{0.23413283f}},{{0.23845984f}},{{0.03703793f}},{{-0.47443637f}},{{-0.50114775f}},{{-0.08502355f}},{{0.38391095f}},{{-0.03916343f}},{{0.46224540f}},{{-1.07260728f}},{{-0.35604194f}},{{-0.28815943f}},{{0.06850779f}},{{0.47453022f}},{{0.39507315f}},{{-0.12891732f}},{{-0.15614475f}},{{-0.25312141f}},{{-0.08492696f}},{{-0.02139656f}},{{-0.56875724f}},{{-0.10229470f}},{{0.13050562f}},{{0.13081571f}},{{0.52047646f}},{{0.08740084f}},{{0.04039973f}},{{-0.11971810f}},{{-0.00545202f}},{{-0.12771730f}},{{-0.49171215f}},{{-0.73644716f}},{{-0.66336817f}},{{0.12565841f}},{{0.20833048f}},{{0.36408615f}},{{0.10265573f}},{{0.22248803f}},{{-0.02147882f}},{{-0.13410953f}},{{-0.04536160f}},{{0.28361312f}},{{-0.11600744f}},{{-0.35961217f}},{{0.15166780f}},{{0.33697188f}},{{-0.36940917f}},{{-0.00553362f}},{{-0.00099171f}},{{0.10916292f}},{{0.13618955f}},{{0.23224075f}},{{0.32075626f}},{{-0.22220728f}},{{-0.26087269f}},{{-0.34166342f}},{{-0.44806924f}},{{0.09739038f}},{{0.18450458f}},{{0.26813996f}},{{0.20565613f}},{{-0.16548118f}},{{0.30807880f}},{{0.13260940f}}},{{{-0.03435046f}},{{0.51647609f}},{{0.03514975f}},{{0.07374322f}},{{0.17288482f}},{{0.39113325f}},{{-0.08424097f}},{{0.06527033f}},{{-0.10333841f}},{{-0.07194116f}},{{-0.24839599f}},{{0.11277795f}},{{-0.11499046f}},{{0.19829409f}},{{-0.21886499f}},{{-0.30823284f}},{{-0.29091278f}},{{-0.32696646f}},{{-0.20691924f}},{{0.08104765f}},{{-0.02808413f}},{{0.26296368f}},{{0.31599221f}},{{0.08668759f}},{{-0.43089184f}},{{0.72774905f}},{{-0.32636139f}},{{0.54784143f}},{{-0.04431486f}},{{-1.14368367f}},{{0.59125030f}},{{0.24947186f}},{{0.30540207f}},{{-0.00891317f}},{{-0.23290008f}},{{-0.14876291f}},{{0.10067835f}},{{0.06904805f}},{{-0.16429511f}},{{0.11067848f}},{{0.06550340f}},{{-0.35921705f}},{{-0.02092991f}},{{0.20479959f}},{{-0.44421428f}},{{-0.56330866f}},{{-0.14272138f}},{{-0.37653524f}},{{-0.17611469f}},{{-0.01916376f}},{{0.12293912f}},{{-0.32129407f}},{{-0.05960941f}},{{0.21675445f}},{{-0.31772020f}},{{0.02373572f}},{{-0.38665003f}},{{0.07820474f}},{{0.25520661f}},{{-0.10141090f}},{{0.21429278f}},{{0.05490281f}},{{-0.28476423f}},{{-0.09874546f}}},{{{0.00794287f}},{{0.36265618f}},{{0.16307129f}},{{0.00580296f}},{{0.12765886f}},{{-0.11457469f}},{{-0.47811577f}},{{0.13387123f}},{{0.21512409f}},{{-0.72086823f}},{{0.08907857f}},{{0.26884848f}},{{-0.19265121f}},{{-0.19097354f}},{{-0.20856284f}},{{0.24714120f}},{{0.24657139f}},{{-0.30470890f}},{{-0.14192745f}},{{0.12841006f}},{{-0.00345057f}},{{0.14403658f}},{{0.43906265f}},{{0.28321639f}},{{-0.27594835f}},{{-0.22516891f}},{{-0.17172961f}},{{-0.11336016f}},{{-0.16129062f}},{{0.38046223f}},{{-0.53355187f}},{{0.41631877f}},{{-0.25635627f}},{{0.04094442f}},{{0.13154705f}},{{-0.26409644f}},{{0.22491683f}},{{0.10301557f}},{{0.14243339f}},{{0.17209111f}},{{-0.04816654f}},{{-0.01888567f}},{{0.08010922f}},{{-0.21479976f}},{{0.68335265f}},{{0.15228534f}},{{-0.19972962f}},{{0.42670432f}},{{0.05153783f}},{{0.06397138f}},{{-0.00398769f}},{{0.03885077f}},{{0.29987913f}},{{-0.06979712f}},{{-0.90048069f}},{{-0.12867500f}},{{0.54327714f}},{{0.18572474f}},{{-0.08241122f}},{{-0.29215920f}},{{-0.39537793f}},{{0.07692939f}},{{-0.28539738f}},{{-0.08286431f}}},{{{-0.16132668f}},{{-0.32025728f}},{{0.10048508f}},{{-0.00658546f}},{{-0.13415654f}},{{-0.16205299f}},{{0.04065206f}},{{0.05022517f}},{{0.68280876f}},{{-0.02298714f}},{{-0.34653357f}},{{-0.05503756f}},{{-0.47629556f}},{{0.36401474f}},{{-0.07909612f}},{{-0.02063784f}},{{0.01354261f}},{{-0.28999665f}},{{-0.38986409f}},{{0.43778574f}},{{0.28647786f}},{{0.07811166f}},{{0.30444947f}},{{0.05185025f}},{{-0.14441051f}},{{-0.15135339f}},{{-0.36477533f}},{{-0.02064962f}},{{0.05211717f}},{{-0.16998351f}},{{-0.01347933f}},{{-0.01420211f}},{{-0.32596162f}},{{-0.10864639f}},{{0.28148553f}},{{-0.17094658f}},{{-0.32997325f}},{{-0.08378694f}},{{0.69702202f}},{{0.18315205f}},{{-0.40375522f}},{{-0.38357368f}},{{0.19841996f}},{{-0.08738238f}},{{0.16188979f}},{{-0.27827808f}},{{-0.21981978f}},{{-0.07740255f}},{{-0.26507565f}},{{-0.03553342f}},{{0.61363715f}},{{0.46716478f}},{{0.06985516f}},{{0.55288517f}},{{0.19909918f}},{{-0.31253013f}},{{-0.46100008f}},{{-0.05648914f}},{{0.05380839f}},{{-0.09730028f}},{{-0.08930527f}},{{-0.48666701f}},{{0.40414402f}},{{-0.14917409f}}},{{{0.38612023f}},{{-0.04928119f}},{{0.42300823f}},{{-0.28948578f}},{{-0.16407782f}},{{-0.10677377f}},{{-0.10119993f}},{{-0.05788104f}},{{0.02550133f}},{{-0.10591053f}},{{-0.16051698f}},{{0.51150858f}},{{-0.26823395f}},{{0.17685917f}},{{-0.51016915f}},{{-0.43856230f}},{{0.35040137f}},{{0.32646996f}},{{-1.17004526f}},{{-0.10388907f}},{{-0.42124379f}},{{-0.22160183f}},{{0.05199955f}},{{0.14139847f}},{{0.04280878f}},{{-0.14073485f}},{{-0.06635603f}},{{0.57155657f}},{{-0.38871315f}},{{-0.45297623f}},{{0.12813890f}},{{0.23399933f}},{{-0.02488097f}},{{0.27770850f}},{{0.15112083f}},{{-0.10506684f}},{{-0.05728494f}},{{0.19883254f}},{{0.29899725f}},{{0.34879765f}},{{0.54793477f}},{{-0.55404049f}},{{-0.03827431f}},{{0.20764685f}},{{0.12195395f}},{{0.11992086f}},{{0.09586737f}},{{0.24656016f}},{{0.02110609f}},{{-0.01628976f}},{{-0.06512463f}},{{0.28955495f}},{{-0.15475103f}},{{0.72133899f}},{{-0.07096221f}},{{-0.11445475f}},{{-0.18798098f}},{{-0.33190376f}},{{0.24639578f}},{{-0.10666937f}},{{0.07304213f}},{{-0.00802679f}},{{0.17074874f}},{{-0.01004488f}}},{{{-0.21197501f}},{{-0.05223768f}},{{0.21029590f}},{{-0.25536379f}},{{0.41792306f}},{{0.09080737f}},{{-0.05243764f}},{{-0.34355438f}},{{0.31104398f}},{{-0.25253275f}},{{-0.29908952f}},{{-0.05728248f}},{{-0.06869356f}},{{0.07765532f}},{{-0.15718511f}},{{0.03689835f}},{{-0.10839316f}},{{-0.08467761f}},{{-0.29021466f}},{{0.20369703f}},{{-0.05690109f}},{{0.31237280f}},{{-0.32784820f}},{{0.24018562f}},{{0.09707124f}},{{0.25314945f}},{{-0.44302106f}},{{-0.08291166f}},{{-0.03341961f}},{{0.10291810f}},{{-0.41850778f}},{{0.26165944f}},{{-0.30578718f}},{{-0.09211862f}},{{0.13529198f}},{{0.02916025f}},{{0.13588826f}},{{0.12227450f}},{{0.73011130f}},{{0.77794564f}},{{0.21272655f}},{{0.25475958f}},{{-0.17390163f}},{{0.45301932f}},{{0.29274943f}},{{-0.15131778f}},{{-0.12438168f}},{{0.10864220f}},{{-0.14033209f}},{{-0.45336279f}},{{0.03851898f}},{{-0.13562919f}},{{0.26221961f}},{{-0.47475407f}},{{-0.16839577f}},{{-0.08854216f}},{{0.11227695f}},{{-0.03448196f}},{{-0.85525328f}},{{-0.13486497f}},{{-0.05629748f}},{{-0.35052195f}},{{0.11428159f}},{{0.03850472f}}},{{{-0.13346776f}},{{0.01446627f}},{{0.17178054f}},{{-0.30101094f}},{{-0.00169252f}},{{-0.09354998f}},{{0.83118504f}},{{0.65939277f}},{{-0.15542427f}},{{-0.27243915f}},{{-0.02318238f}},{{0.48497853f}},{{-0.35856465f}},{{-0.05047134f}},{{0.03678295f}},{{-0.26581672f}},{{-0.36698925f}},{{-0.04223944f}},{{-0.16054127f}},{{0.12416393f}},{{0.19067131f}},{{0.22410965f}},{{-0.47425705f}},{{-0.05309239f}},{{-0.06549062f}},{{0.26802859f}},{{0.46348783f}},{{-0.00304279f}},{{0.10936179f}},{{-0.45812136f}},{{-0.07342746f}},{{-0.17158277f}},{{-0.09931424f}},{{0.24314654f}},{{0.30600202f}},{{0.22828031f}},{{-0.26116648f}},{{-0.22515327f}},{{0.02200859f}},{{-0.17594752f}},{{0.08587024f}},{{-0.09626676f}},{{0.21264352f}},{{-0.36912584f}},{{0.21299176f}},{{-0.29636523f}},{{0.28295261f}},{{-0.17472909f}},{{-0.22155471f}},{{0.13749006f}},{{-0.05146217f}},{{0.24617682f}},{{-0.27051473f}},{{-0.22551933f}},{{-0.46313873f}},{{-0.19086787f}},{{0.25920141f}},{{-0.24257946f}},{{0.36408389f}},{{-0.69677824f}},{{-0.17546001f}},{{-0.19097976f}},{{0.05314664f}},{{0.25850362f}}},{{{0.34658426f}},{{-0.28061002f}},{{-0.30052939f}},{{-0.03927774f}},{{-0.58961159f}},{{-0.10998181f}},{{0.50268590f}},{{0.06883430f}},{{0.15889296f}},{{-0.02152448f}},{{-0.15740436f}},{{-0.54025763f}},{{-0.35945097f}},{{0.28558847f}},{{0.21045724f}},{{-0.05868608f}},{{0.07532052f}},{{-0.24281055f}},{{-0.03912763f}},{{-0.00626664f}},{{-0.31271333f}},{{0.12828179f}},{{-0.49293196f}},{{0.02782643f}},{{-0.28378475f}},{{-0.71829039f}},{{0.11196938f}},{{0.02057200f}},{{-0.23503362f}},{{0.56499547f}},{{-0.25560412f}},{{0.06961696f}},{{0.16775545f}},{{-0.02879998f}},{{-0.03807895f}},{{-0.02733789f}},{{-0.33341008f}},{{-0.42347658f}},{{-0.03728659f}},{{-0.02048674f}},{{0.10491473f}},{{0.33118188f}},{{-0.01348662f}},{{0.14090031f}},{{-0.21873392f}},{{-0.02766967f}},{{-0.48673990f}},{{0.25050446f}},{{0.03385040f}},{{0.33487245f}},{{0.14302967f}},{{0.11608961f}},{{0.00359740f}},{{-0.10407406f}},{{-0.34831792f}},{{0.28562328f}},{{-0.42199096f}},{{0.04815369f}},{{0.04116328f}},{{-0.11410139f}},{{0.05495965f}},{{-0.58633631f}},{{0.28407750f}},{{0.05684710f}}},{{{0.04791149f}},{{0.40016997f}},{{0.20406742f}},{{-0.11448092f}},{{-0.01372740f}},{{-0.35983932f}},{{-0.10010355f}},{{-0.09567279f}},{{-0.14102396f}},{{-0.14060205f}},{{0.01462993f}},{{-0.46966627f}},{{0.36902019f}},{{-0.19303380f}},{{0.06405376f}},{{0.32089728f}},{{-0.69251776f}},{{0.08251408f}},{{0.05757906f}},{{0.00306816f}},{{-0.12391311f}},{{0.03519565f}},{{0.27626359f}},{{0.19537255f}},{{-0.17255393f}},{{-0.05147005f}},{{-0.04419509f}},{{0.07079405f}},{{0.03614893f}},{{0.12127724f}},{{-0.01140917f}},{{-0.04427879f}},{{-0.84781009f}},{{-0.54448777f}},{{0.43660021f}},{{-0.11441933f}},{{-0.03104576f}},{{-0.22098513f}},{{0.09979703f}},{{0.07620404f}},{{0.21009023f}},{{-0.61354309f}},{{-0.76843119f}},{{0.28654325f}},{{-0.26205164f}},{{0.30264330f}},{{-0.32705551f}},{{-0.29014567f}},{{0.26276773f}},{{-0.37635982f}},{{0.21517961f}},{{0.13695094f}},{{0.19345592f}},{{0.30127293f}},{{0.31009138f}},{{-0.36545762f}},{{0.10417267f}},{{0.67107314f}},{{-0.08201203f}},{{0.46112221f}},{{-0.19277236f}},{{-0.04843553f}},{{-0.06700158f}},{{0.11705822f}}},{{{0.07770413f}},{{-0.06469608f}},{{0.13812616f}},{{0.24695015f}},{{-0.26300260f}},{{-0.39445862f}},{{0.05630448f}},{{0.32286698f}},{{0.01194045f}},{{-0.46504498f}},{{0.13529731f}},{{-0.33749402f}},{{-0.18288010f}},{{-0.38274017f}},{{0.07862435f}},{{0.68821907f}},{{0.11236588f}},{{0.62231612f}},{{-0.19786541f}},{{0.20768403f}},{{0.31285128f}},{{0.62931418f}},{{0.05636291f}},{{-0.35428777f}},{{-0.01259124f}},{{-0.08630958f}},{{-0.13410528f}},{{-0.06332100f}},{{0.36736253f}},{{0.41588625f}},{{0.19425492f}},{{-0.78447938f}},{{-0.09817018f}},{{0.00874269f}},{{-0.48620582f}},{{0.00202283f}},{{0.36890507f}},{{0.18387312f}},{{-0.35504627f}},{{0.12892857f}},{{-0.41593978f}},{{0.19227581f}},{{0.27224717f}},{{-0.20811163f}},{{0.06842238f}},{{-0.33251566f}},{{-0.35626596f}},{{0.26685536f}},{{0.13829389f}},{{0.20380348f}},{{-0.54896271f}},{{0.16208443f}},{{-0.16087316f}},{{-0.12187020f}},{{-0.16459499f}},{{-0.44103956f}},{{-0.01627425f}},{{-0.08477066f}},{{-0.16730605f}},{{-0.20957799f}},{{-0.21214706f}},{{-0.08756960f}},{{0.33605006f}},{{0.23797318f}}},{{{0.07988000f}},{{0.27309847f}},{{0.11024066f}},{{-0.09147514f}},{{-0.17419900f}},{{-0.14575423f}},{{-0.32400885f}},{{0.38023534f}},{{0.16186631f}},{{0.13752836f}},{{0.16562058f}},{{-0.27637807f}},{{0.29105258f}},{{0.02639268f}},{{0.51439011f}},{{0.12053326f}},{{0.27470911f}},{{-0.63464564f}},{{-0.35214308f}},{{0.31179327f}},{{-0.54405326f}},{{-0.26972190f}},{{0.36107463f}},{{0.35261017f}},{{0.40573969f}},{{-0.10065947f}},{{-0.26195702f}},{{0.67998666f}},{{-0.30907735f}},{{-0.18726604f}},{{0.41661587f}},{{0.35434780f}},{{0.23291205f}},{{-0.04893373f}},{{-0.56464761f}},{{-0.32932386f}},{{0.14848821f}},{{-0.29637134f}},{{0.25084674f}},{{-0.13436496f}},{{0.21126354f}},{{0.11786745f}},{{0.20390159f}},{{0.19097872f}},{{-0.38472897f}},{{-0.62937099f}},{{0.29255334f}},{{0.04085661f}},{{-0.16565044f}},{{-0.11610377f}},{{-0.55206686f}},{{0.06344453f}},{{0.00545294f}},{{0.35727856f}},{{0.32099900f}},{{-0.02032006f}},{{-0.10584036f}},{{-0.12251613f}},{{0.20841831f}},{{-0.09586089f}},{{-0.03612382f}},{{-0.33008060f}},{{-0.08671758f}},{{-0.16612531f}}},{{{-0.01207788f}},{{0.30211484f}},{{0.06682555f}},{{0.14704171f}},{{0.46048975f}},{{-0.18283689f}},{{-0.06076423f}},{{-0.24477758f}},{{0.25802007f}},{{0.61253238f}},{{-0.25672591f}},{{0.04437477f}},{{-0.81791252f}},{{0.19277547f}},{{0.12146907f}},{{0.44503447f}},{{-0.40990257f}},{{-0.07745530f}},{{-0.22084939f}},{{-0.07356168f}},{{0.20223418f}},{{0.20156603f}},{{-0.01254863f}},{{0.43601462f}},{{-0.13520093f}},{{-0.36621380f}},{{-0.16356187f}},{{-0.00819642f}},{{0.37396967f}},{{-0.01887505f}},{{-0.37697178f}},{{0.37970674f}},{{0.01916062f}},{{-0.02400371f}},{{-0.37031704f}},{{-0.12588871f}},{{0.33660612f}},{{-0.18815848f}},{{-0.21590243f}},{{0.05153060f}},{{-0.01850879f}},{{-0.10212137f}},{{0.13522936f}},{{-0.37226129f}},{{0.05512897f}},{{0.36403927f}},{{0.11465151f}},{{0.12835753f}},{{-0.34174344f}},{{0.60199243f}},{{0.05597627f}},{{0.14668284f}},{{0.25638947f}},{{-0.07884357f}},{{-0.13684067f}},{{0.10374600f}},{{0.13599311f}},{{-0.04963474f}},{{0.08700220f}},{{0.48694026f}},{{0.11131684f}},{{0.08502859f}},{{0.05490549f}},{{0.18800050f}}},{{{0.09757555f}},{{-0.21873872f}},{{-0.23423800f}},{{0.25325254f}},{{-0.26546741f}},{{-0.26670074f}},{{-0.20533538f}},{{0.04727071f}},{{0.25073913f}},{{0.12544288f}},{{0.18819447f}},{{-0.21284182f}},{{0.25472200f}},{{-0.13391171f}},{{0.25963685f}},{{0.75182325f}},{{0.15294206f}},{{0.05227023f}},{{0.01808683f}},{{-0.07960910f}},{{-0.55274278f}},{{-0.36649847f}},{{0.08077999f}},{{0.17927448f}},{{0.10054133f}},{{-0.52093822f}},{{-0.08317569f}},{{-0.49743435f}},{{0.12784661f}},